{"learner":{"attributes":{"scikit_learn":"{\"_estimator_type\": \"regressor\"}"},"feature_names":["DIASEM","tipo_cod","A_FERIADO","TENDENCIA","PROM_HIST","LAG7","MEDIA_MOV4S","VACACIONES","CANT_LAG7","CANT_MOV4S"],"feature_types":["int","int","int","int","float","float","float","int","float","float"],"gradient_booster":{"model":{"cats":{"enc":[],"feature_segments":[],"sorted_idx":[]},"gbtree_model_param":{"num_parallel_tree":"1","num_trees":"231"},"iteration_indptr":[0,1,2,3,4,5,6,7,8,9,10,11,12,13,14,15,16,17,18,19,20,21,22,23,24,25,26,27,28,29,30,31,32,33,34,35,36,37,38,39,40,41,42,43,44,45,46,47,48,49,50,51,52,53,54,55,56,57,58,59,60,61,62,63,64,65,66,67,68,69,70,71,72,73,74,75,76,77,78,79,80,81,82,83,84,85,86,87,88,89,90,91,92,93,94,95,96,97,98,99,100,101,102,103,104,105,106,107,108,109,110,111,112,113,114,115,116,117,118,119,120,121,122,123,124,125,126,127,128,129,130,131,132,133,134,135,136,137,138,139,140,141,142,143,144,145,146,147,148,149,150,151,152,153,154,155,156,157,158,159,160,161,162,163,164,165,166,167,168,169,170,171,172,173,174,175,176,177,178,179,180,181,182,183,184,185,186,187,188,189,190,191,192,193,194,195,196,197,198,199,200,201,202,203,204,205,206,207,208,209,210,211,212,213,214,215,216,217,218,219,220,221,222,223,224,225,226,227,228,229,230,231],"tree_info":[0,0,0,0,0,0,0,0,0,0,0,0,0,0,0,0,0,0,0,0,0,0,0,0,0,0,0,0,0,0,0,0,0,0,0,0,0,0,0,0,0,0,0,0,0,0,0,0,0,0,0,0,0,0,0,0,0,0,0,0,0,0,0,0,0,0,0,0,0,0,0,0,0,0,0,0,0,0,0,0,0,0,0,0,0,0,0,0,0,0,0,0,0,0,0,0,0,0,0,0,0,0,0,0,0,0,0,0,0,0,0,0,0,0,0,0,0,0,0,0,0,0,0,0,0,0,0,0,0,0,0,0,0,0,0,0,0,0,0,0,0,0,0,0,0,0,0,0,0,0,0,0,0,0,0,0,0,0,0,0,0,0,0,0,0,0,0,0,0,0,0,0,0,0,0,0,0,0,0,0,0,0,0,0,0,0,0,0,0,0,0,0,0,0,0,0,0,0,0,0,0,0,0,0,0,0,0,0,0,0,0,0,0,0,0,0,0,0,0,0,0,0,0,0,0,0,0,0,0,0,0],"trees":[{"base_weights":[-0E0,-8.947865E-1,2.3777127E0,-1.881881E0,-4.818056E-2,1.6264566E0,8.6967E-2,-7.121954E-2,-4.3265704E-2,-4.6037042E-1,3.023589E-1,-0E0,1.6730276E0,-5.8554834E-1,-0E0,-2.5256935E-1,4.63546E-1,5.492482E-3,5.231304E-2,-1.7939227E-2,-0E0,-2.2990583E-3,2.4882278E-3,-0E0,-1.829902E-2,-0E0,1.8686298E-2],"categories":[],"categories_nodes":[],"categories_segments":[],"categories_sizes":[],"default_left":[0,0,0,0,0,0,0,0,0,0,0,0,0,0,0,0,0,0,0,0,0,0,0,0,0,0,0],"id":0,"left_children":[1,3,5,7,9,11,-1,-1,-1,13,15,-1,17,19,21,23,25,-1,-1,-1,-1,-1,-1,-1,-1,-1,-1],"loss_changes":[4.833496E3,1.3603359E3,1.5074683E2,9.139575E1,1.3373447E2,1.3003967E1,0E0,0E0,0E0,2.7204369E1,4.6394127E1,0E0,6.418335E0,2.9576645E0,6.9800174E-1,9.183609E0,2.5004982E1,0E0,0E0,0E0,0E0,0E0,0E0,0E0,0E0,0E0,0E0],"parents":[2147483647,0,0,1,1,2,2,3,3,4,4,5,5,9,9,10,10,12,12,13,13,14,14,15,15,16,16],"right_children":[2,4,6,8,10,12,-1,-1,-1,14,16,-1,18,20,22,24,26,-1,-1,-1,-1,-1,-1,-1,-1,-1,-1],"split_conditions":[4.909E0,2.936E0,6.161E0,1.821E0,3.8067415E0,2.83E2,8.6967E-2,-7.121954E-2,-4.3265704E-2,3.868E0,1.72E2,-0E0,3.6595473E0,3.7895E0,2.59E2,4.308E0,4.1125426E0,5.492482E-3,5.231304E-2,-1.7939227E-2,-0E0,-2.2990583E-3,2.4882278E-3,-0E0,-1.829902E-2,-0E0,1.8686298E-2],"split_indices":[6,6,5,5,6,3,0,0,0,5,3,0,4,6,3,6,6,0,0,0,0,0,0,0,0,0,0],"split_type":[0,0,0,0,0,0,0,0,0,0,0,0,0,0,0,0,0,0,0,0,0,0,0,0,0,0,0],"sum_hessian":[2.253E3,1.642E3,6.11E2,7.47E2,8.95E2,2.75E2,3.36E2,3.21E2,4.26E2,4.23E2,4.72E2,1.1E1,2.64E2,3.37E2,8.6E1,9.1E1,3.81E2,2E1,2.44E2,3.31E2,6E0,2.1E1,6.5E1,5.9E1,3.2E1,1.1E2,2.71E2],"tree_param":{"num_deleted":"0","num_feature":"10","num_nodes":"27","size_leaf_vector":"1"}},{"base_weights":[-2.1649557E-3,-8.9025795E-1,2.3111024E0,-1.8615727E0,-6.430456E-2,1.4639909E0,8.232511E-2,-6.815934E-2,-1.37655E0,6.0889184E-2,-1.4980737E0,-0E0,4.4734444E-2,-4.1849148E-2,-0E0,-2.8593707E-1,4.2332038E-1,-0E0,-4.6880707E-2,-1.4407788E-2,-0E0,-0E0,1.5994444E-2],"categories":[],"categories_nodes":[],"categories_segments":[],"categories_sizes":[],"default_left":[0,0,0,0,0,0,0,0,0,0,0,0,0,0,0,0,0,0,0,0,0,0,0],"id":1,"left_children":[1,3,5,7,9,11,-1,-1,13,15,17,-1,-1,-1,-1,19,21,-1,-1,-1,-1,-1,-1],"loss_changes":[4.6225947E3,1.2904382E3,1.462959E2,8.053638E1,1.7665356E2,3.696289E0,0E0,0E0,7.623413E0,1.0691581E2,9.722748E-1,0E0,0E0,0E0,0E0,2.2496918E1,2.4642555E1,0E0,0E0,0E0,0E0,0E0,0E0],"parents":[2147483647,0,0,1,1,2,2,3,3,4,4,5,5,8,8,9,9,10,10,15,15,16,16],"right_children":[2,4,6,8,10,12,-1,-1,14,16,18,-1,-1,-1,-1,20,22,-1,-1,-1,-1,-1,-1],"split_conditions":[4.909E0,2.92275E0,5.877E0,2.0525E0,6E0,2.83E2,8.232511E-2,-6.815934E-2,3.892E0,3.842E0,2.98175E0,-0E0,4.4734444E-2,-4.1849148E-2,-0E0,3.6005E0,1.8E2,-0E0,-4.6880707E-2,-1.4407788E-2,-0E0,-0E0,1.5994444E-2],"split_indices":[6,6,5,6,0,3,0,0,5,5,6,0,0,0,0,6,3,0,0,0,0,0,0],"split_type":[0,0,0,0,0,0,0,0,0,0,0,0,0,0,0,0,0,0,0,0,0,0,0],"sum_hessian":[2.237E3,1.624E3,6.13E2,7.35E2,8.89E2,2.3E2,3.83E2,3.67E2,3.68E2,8.2E2,6.9E1,7E0,2.23E2,3.62E2,6E0,4.06E2,4.14E2,6E0,6.3E1,2.35E2,1.71E2,7E1,3.44E2],"tree_param":{"num_deleted":"0","num_feature":"10","num_nodes":"23","size_leaf_vector":"1"}},{"base_weights":[-2.2063436E-2,-8.6294067E-1,2.198455E0,-1.8313897E0,-9.915417E-2,1.4031322E0,2.6777472E0,-6.721914E-2,-4.1875444E-2,3.2795016E-2,-4.2783782E-2,1.5146648E0,3.9828163E-1,-0E0,8.112883E-2,-2.8624249E-1,4.0626454E-1,4.6097077E-2,-0E0,1.3498841E-2,-0E0,-1.4382839E-2,-0E0,7.654048E-3,2.617386E-2],"categories":[],"categories_nodes":[],"categories_segments":[],"categories_sizes":[],"default_left":[0,0,0,0,0,0,0,0,0,0,0,0,0,0,0,0,0,0,0,0,0,0,0,0,0],"id":2,"left_children":[1,3,5,7,9,11,13,-1,-1,15,-1,17,19,-1,-1,21,23,-1,-1,-1,-1,-1,-1,-1,-1],"loss_changes":[4.277732E3,1.2141583E3,1.6100781E2,6.247754E1,1.8073924E2,4.5373535E0,1.6727295E1,0E0,0E0,1.0566685E2,0E0,9.3865967E-1,9.3321896E-1,0E0,0E0,2.8359238E1,1.5948784E1,0E0,0E0,0E0,0E0,0E0,0E0,0E0,0E0],"parents":[2147483647,0,0,1,1,2,2,3,3,4,4,5,5,6,6,9,9,11,11,12,12,15,15,16,16],"right_children":[2,4,6,8,10,12,14,-1,-1,16,-1,18,20,-1,-1,22,24,-1,-1,-1,-1,-1,-1,-1,-1],"split_conditions":[4.909E0,2.8485E0,5.96275E0,1.821E0,6E0,5E0,4.2227607E0,-6.721914E-2,-4.1875444E-2,3.868E0,-4.2783782E-2,1E0,9.15E1,-0E0,8.112883E-2,3.675E0,5.006E0,4.6097077E-2,-0E0,1.3498841E-2,-0E0,-1.4382839E-2,-0E0,7.654048E-3,2.617386E-2],"split_indices":[6,6,6,5,0,0,5,0,0,5,0,2,9,0,0,6,5,0,0,0,0,0,0,0,0],"split_type":[0,0,0,0,0,0,0,0,0,0,0,0,0,0,0,0,0,0,0,0,0,0,0,0,0],"sum_hessian":[2.278E3,1.66E3,6.18E2,7.2E2,9.4E2,2.55E2,3.63E2,3.38E2,3.82E2,8.57E2,8.3E1,2.16E2,3.9E1,5E0,3.58E2,4.49E2,4.08E2,2.1E2,6E0,3.3E1,6E0,2.77E2,1.72E2,3.36E2,7.2E1],"tree_param":{"num_deleted":"0","num_feature":"10","num_nodes":"25","size_leaf_vector":"1"}},{"base_weights":[-3.51642E-2,-8.790257E-1,2.0778112E0,-1.7823955E0,-1.4498866E-1,1.1609662E0,2.545998E0,-5.823184E-2,-2.6194332E-2,1.976626E-2,-3.934911E-2,1.403249E0,2.5757673E-1,1.0373589E0,8.009014E-2,-2.9784688E-1,3.8447136E-1,4.312029E-2,-0E0,-3.3724017E-3,4.653656E-1,-0E0,3.4564607E-2,-1.3412677E-2,-3.569976E-4,-0E0,1.8284619E-2,-0E0,1.5678028E-2],"categories":[],"categories_nodes":[],"categories_segments":[],"categories_sizes":[],"default_left":[0,0,0,0,0,0,0,0,0,0,0,0,0,0,0,0,0,0,0,0,0,0,0,0,0,0,0,0,0],"id":3,"left_children":[1,3,5,7,9,11,13,-1,-1,15,-1,17,19,21,-1,23,25,-1,-1,-1,27,-1,-1,-1,-1,-1,-1,-1,-1],"loss_changes":[4.0823486E3,1.0682897E3,2.1324634E2,6.0224854E1,1.9078096E2,3.3620728E1,1.2852539E1,0E0,0E0,9.606951E1,0E0,5.3273315E0,9.664882E0,6.9353256E0,0E0,1.349395E1,3.1956001E1,0E0,0E0,0E0,1.8202934E0,0E0,0E0,0E0,0E0,0E0,0E0,0E0,0E0],"parents":[2147483647,0,0,1,1,2,2,3,3,4,4,5,5,6,6,9,9,11,11,12,12,13,13,15,15,16,16,20,20],"right_children":[2,4,6,8,10,12,14,-1,-1,16,-1,18,20,22,-1,24,26,-1,-1,-1,28,-1,-1,-1,-1,-1,-1,-1,-1],"split_conditions":[8.125E1,4.7E1,9.475E1,2.63E0,6E0,5E0,4.319782E0,-5.823184E-2,-2.6194332E-2,6.5E1,-3.934911E-2,1E0,4.93E2,4.749E0,8.009014E-2,3.395E0,3.16E2,4.312029E-2,-0E0,-3.3724017E-3,4.4127827E0,-0E0,3.4564607E-2,-1.3412677E-2,-3.569976E-4,-0E0,1.8284619E-2,-0E0,1.5678028E-2],"split_indices":[9,9,9,5,0,0,4,0,0,8,0,2,3,5,0,5,3,0,0,0,4,0,0,0,0,0,0,0,0],"split_type":[0,0,0,0,0,0,0,0,0,0,0,0,0,0,0,0,0,0,0,0,0,0,0,0,0,0,0,0,0],"sum_hessian":[2.276E3,1.634E3,6.42E2,7.2E2,9.14E2,2.36E2,4.06E2,5.94E2,1.26E2,8.02E2,1.12E2,1.73E2,6.3E1,4.4E1,3.62E2,4.15E2,3.87E2,1.67E2,6E0,7E0,5.6E1,5E0,3.9E1,2.46E2,1.69E2,1.53E2,2.34E2,7E0,4.9E1],"tree_param":{"num_deleted":"0","num_feature":"10","num_nodes":"29","size_leaf_vector":"1"}},{"base_weights":[-0E0,-7.880538E-1,2.0991113E0,-1.6974826E0,-6.8535656E-2,1.4530842E0,7.909553E-2,-6.317875E-2,-3.9263953E-2,5.8106188E-2,-4.0275395E-2,1.4952707E0,-0E0,-2.5608692E-1,4.0450823E-1,8.724806E-1,5.2596267E-2,-1.3085277E-2,-0E0,-0E0,1.6157815E-2,-0E0,2.7705729E-2],"categories":[],"categories_nodes":[],"categories_segments":[],"categories_sizes":[],"default_left":[0,0,0,0,0,0,0,0,0,0,0,0,0,0,0,0,0,0,0,0,0,0,0],"id":4,"left_children":[1,3,5,7,9,11,-1,-1,-1,13,-1,15,-1,17,19,21,-1,-1,-1,-1,-1,-1,-1],"loss_changes":[3.791095E3,1.0693613E3,1.381272E2,5.3872803E1,1.6608939E2,1.2349915E1,0E0,0E0,0E0,9.6337715E1,0E0,7.1210327E0,0E0,2.4407927E1,2.0310059E1,4.177803E0,0E0,0E0,0E0,0E0,0E0,0E0,0E0],"parents":[2147483647,0,0,1,1,2,2,3,3,4,4,5,5,9,9,11,11,13,13,14,14,15,15],"right_children":[2,4,6,8,10,12,-1,-1,-1,14,-1,16,-1,18,20,22,-1,-1,-1,-1,-1,-1,-1],"split_conditions":[4.909E0,2.8485E0,6.2E0,1.922E0,6E0,1E0,7.909553E-2,-6.317875E-2,-3.9263953E-2,3.842E0,-4.0275395E-2,5.3315E0,-0E0,3.6575E0,2.73E2,2.83E2,5.2596267E-2,-1.3085277E-2,-0E0,-0E0,1.6157815E-2,-0E0,2.7705729E-2],"split_indices":[6,6,5,6,0,2,0,0,0,5,0,6,0,6,3,3,0,0,0,0,0,0,0],"split_type":[0,0,0,0,0,0,0,0,0,0,0,0,0,0,0,0,0,0,0,0,0,0,0],"sum_hessian":[2.269E3,1.653E3,6.16E2,7.18E2,9.35E2,3.05E2,3.11E2,3.16E2,4.02E2,8.52E2,8.3E1,2.93E2,1.2E1,4.33E2,4.19E2,1.1E2,1.83E2,2.71E2,1.62E2,1.17E2,3.02E2,8E0,1.02E2],"tree_param":{"num_deleted":"0","num_feature":"10","num_nodes":"23","size_leaf_vector":"1"}},{"base_weights":[1.1496651E-2,-7.87286E-1,2.0632994E0,-1.633059E0,-4.8301835E-2,1.3963187E0,7.5596616E-2,-5.978273E-2,-1.2074296E0,5.5352073E-2,-3.8756892E-2,-0E0,1.4202058E0,-3.658179E-2,-0E0,-2.5429216E-1,3.7860855E-1,4.5431197E-2,4.0638098E-1,-1.3278139E-2,-0E0,2.9771698E-3,1.5620117E-2,1.4219148E-2,-0E0],"categories":[],"categories_nodes":[],"categories_segments":[],"categories_sizes":[],"default_left":[0,0,0,0,0,0,0,0,0,0,0,0,0,0,0,0,0,0,0,0,0,0,0,0,0],"id":5,"left_children":[1,3,5,7,9,11,-1,-1,13,15,-1,-1,17,-1,-1,19,21,-1,23,-1,-1,-1,-1,-1,-1],"loss_changes":[3.729741E3,1.0005436E3,1.20250244E2,5.921985E1,1.2728898E2,9.493164E0,0E0,0E0,2.19812E0,8.428343E1,0E0,0E0,1.942627E0,0E0,0E0,1.9980244E1,9.992771E0,0E0,1.4487734E0,0E0,0E0,0E0,0E0,0E0,0E0],"parents":[2147483647,0,0,1,1,2,2,3,3,4,4,5,5,8,8,9,9,12,12,15,15,16,16,18,18],"right_children":[2,4,6,8,10,12,-1,-1,14,16,-1,-1,18,-1,-1,20,22,-1,24,-1,-1,-1,-1,-1,-1],"split_conditions":[4.909E0,2.936E0,6.09725E0,2.0525E0,6E0,3.782E0,7.5596616E-2,-5.978273E-2,3.73E0,3.842E0,-3.8756892E-2,-0E0,5E0,-3.658179E-2,-0E0,3.6005E0,4.093996E0,4.5431197E-2,9.15E1,-1.3278139E-2,-0E0,2.9771698E-3,1.5620117E-2,1.4219148E-2,-0E0],"split_indices":[6,6,6,6,0,5,0,0,5,5,0,0,0,0,0,6,6,0,9,0,0,0,0,0,0],"split_type":[0,0,0,0,0,0,0,0,0,0,0,0,0,0,0,0,0,0,0,0,0,0,0,0,0],"sum_hessian":[2.248E3,1.619E3,6.29E2,7.43E2,8.76E2,2.81E2,3.48E2,3.7E2,3.73E2,8.1E2,6.6E1,5E0,2.76E2,3.67E2,6E0,3.99E2,4.11E2,2.39E2,3.7E1,2.27E2,1.72E2,1.68E2,2.43E2,3.1E1,6E0],"tree_param":{"num_deleted":"0","num_feature":"10","num_nodes":"25","size_leaf_vector":"1"}},{"base_weights":[2.511859E-3,-7.765078E-1,2.032891E0,-1.619846E0,-9.574726E-2,1.3962003E0,2.5483682E0,-5.785772E-2,-1.2184304E0,-3.42511E-1,2.7019823E-1,-0E0,4.3130986E-2,3.4243946E-3,2.5897498E0,-3.699557E-2,-0E0,-4.7732085E-1,-0E0,-2.5962222E-1,4.506963E-1,-0E0,7.850085E-2,-1.5235622E-2,-0E0,-2.1203412E-3,1.1165135E-3,-0E0,-1.49120055E-2,2.7293648E-4,1.9500589E-2],"categories":[],"categories_nodes":[],"categories_segments":[],"categories_sizes":[],"default_left":[0,0,0,0,0,0,0,0,0,0,0,0,0,0,0,0,0,0,0,0,0,0,0,0,0,0,0,0,0,0,0],"id":6,"left_children":[1,3,5,7,9,11,13,-1,15,17,19,-1,-1,-1,21,-1,-1,23,25,27,29,-1,-1,-1,-1,-1,-1,-1,-1,-1,-1],"loss_changes":[3.6030034E3,9.211135E2,1.3272437E2,3.476013E1,8.4997406E1,7.9901733E0,3.145752E0,0E0,2.2329712E0,2.6536789E1,3.7603844E1,0E0,0E0,0E0,3.6694336E0,0E0,0E0,5.657303E0,4.6732187E-1,6.6918626E0,1.8611675E1,0E0,0E0,0E0,0E0,0E0,0E0,0E0,0E0,0E0,0E0],"parents":[2147483647,0,0,1,1,2,2,3,3,4,4,5,5,6,6,8,8,9,9,10,10,14,14,17,17,18,18,19,19,20,20],"right_children":[2,4,6,8,10,12,14,-1,16,18,20,-1,-1,-1,22,-1,-1,24,26,28,30,-1,-1,-1,-1,-1,-1,-1,-1,-1,-1],"split_conditions":[4.909E0,2.8485E0,6.23425E0,2.0525E0,4.0353713E0,2.83E2,4.2227607E0,-5.785772E-2,3.711E0,3.842E0,2.12E2,-0E0,4.3130986E-2,3.4243946E-3,3.89E2,-3.699557E-2,-0E0,1.056E3,2.73E2,4.308E0,4.319782E0,-0E0,7.850085E-2,-1.5235622E-2,-0E0,-2.1203412E-3,1.1165135E-3,-0E0,-1.49120055E-2,2.7293648E-4,1.9500589E-2],"split_indices":[6,6,6,6,6,3,4,0,5,5,3,0,0,0,3,0,0,3,3,6,4,0,0,0,0,0,0,0,0,0,0],"split_type":[0,0,0,0,0,0,0,0,0,0,0,0,0,0,0,0,0,0,0,0,0,0,0,0,0,0,0,0,0,0,0],"sum_hessian":[2.25E3,1.627E3,6.23E2,7.14E2,9.13E2,3.04E2,3.19E2,3.68E2,3.46E2,5.62E2,3.51E2,1.4E1,2.9E2,1E1,3.09E2,3.39E2,7E0,4.01E2,1.61E2,7.4E1,2.77E2,6E0,3.03E2,3.75E2,2.6E1,5E1,1.11E2,3.4E1,4E1,1.05E2,1.72E2],"tree_param":{"num_deleted":"0","num_feature":"10","num_nodes":"31","size_leaf_vector":"1"}},{"base_weights":[-0E0,-7.5821835E-1,1.8788071E0,-1.6586106E0,-1.7513826E-1,1.1207254E0,2.3524134E0,-5.9743043E-2,-3.728114E-2,-0E0,-1.2303153E0,1.2931039E0,2.4355412E-1,7.10881E-2,-0E0,-3.056886E-1,3.6327583E-1,-6.0123287E-2,-8.076009E-1,1.3504132E0,-0E0,-0E0,4.0259236E-1,-1.3877195E-2,-8.49943E-5,-0E0,1.3724347E-2,-2.6062718E-2,-0E0,1.8550007E-3,4.3735825E-2,-0E0,1.5625661E-2],"categories":[],"categories_nodes":[],"categories_segments":[],"categories_sizes":[],"default_left":[0,0,0,0,0,0,0,0,0,0,0,0,0,0,0,0,0,0,0,0,0,0,0,0,0,0,0,0,0,0,0,0,0],"id":7,"left_children":[1,3,5,7,9,11,13,-1,-1,15,17,19,21,-1,-1,23,25,-1,27,29,-1,-1,31,-1,-1,-1,-1,-1,-1,-1,-1,-1,-1],"loss_changes":[3.2627993E3,8.3083386E2,1.7586548E2,3.0117798E1,1.7963553E2,2.3972748E1,3.5007324E0,0E0,0E0,9.7899796E1,1.1637421E0,1.5547943E1,6.1774125E0,0E0,0E0,1.8471836E1,1.7300526E1,0E0,4.997139E0,1.3392456E1,0E0,0E0,2.8108568E0,0E0,0E0,0E0,0E0,0E0,0E0,0E0,0E0,0E0,0E0],"parents":[2147483647,0,0,1,1,2,2,3,3,4,4,5,5,6,6,9,9,10,10,11,11,12,12,15,15,16,16,18,18,19,19,22,22],"right_children":[2,4,6,8,10,12,14,-1,-1,16,18,20,22,-1,-1,24,26,-1,28,30,-1,-1,32,-1,-1,-1,-1,-1,-1,-1,-1,-1,-1],"split_conditions":[8.125E1,4.375E1,5.877E0,1.785E0,6E0,5E0,5E0,-5.9743043E-2,-3.728114E-2,3.868E0,4.66E2,1E0,4.93E2,7.10881E-2,-0E0,3.395E0,1.8E2,-6.0123287E-2,7.887838E1,8.3E1,-0E0,-0E0,4.497526E0,-1.3877195E-2,-8.49943E-5,-0E0,1.3724347E-2,-2.6062718E-2,-0E0,1.8550007E-3,4.3735825E-2,-0E0,1.5625661E-2],"split_indices":[9,9,5,5,0,0,0,0,0,5,3,2,3,0,0,5,3,0,8,9,0,0,4,0,0,0,0,0,0,0,0,0,0],"split_type":[0,0,0,0,0,0,0,0,0,0,0,0,0,0,0,0,0,0,0,0,0,0,0,0,0,0,0,0,0,0,0,0,0],"sum_hessian":[2.263E3,1.613E3,6.5E2,6.2E2,9.93E2,2.71E2,3.79E2,3.1E2,3.1E2,8.64E2,1.29E2,2.13E2,5.8E1,3.74E2,5E0,4.77E2,3.87E2,2.4E1,1.05E2,2.03E2,1E1,5E0,5.3E1,2.89E2,1.88E2,6.4E1,3.23E2,9.6E1,9E0,2.4E1,1.79E2,1.5E1,3.8E1],"tree_param":{"num_deleted":"0","num_feature":"10","num_nodes":"33","size_leaf_vector":"1"}},{"base_weights":[-6.772586E-3,-7.4198276E-1,1.9111813E0,-1.5418432E0,-9.250072E-2,1.3219678E0,7.119845E-2,-1.8995967E0,-3.4870874E-2,2.211559E-2,-3.7502907E-2,1.3648618E0,-0E0,-5.804491E-2,-1.2564679E-3,-2.235158E-1,4.2654842E-1,9.6574397E-4,4.2558633E-2,-1.1151659E-2,4.5234794E-4,7.585464E-3,2.1829152E-2],"categories":[],"categories_nodes":[],"categories_segments":[],"categories_sizes":[],"default_left":[0,0,0,0,0,0,0,0,0,0,0,0,0,0,0,0,0,0,0,0,0,0,0],"id":8,"left_children":[1,3,5,7,9,11,-1,13,-1,15,-1,17,-1,-1,-1,19,21,-1,-1,-1,-1,-1,-1],"loss_changes":[3.2132847E3,8.430336E2,1.0320703E2,4.708435E1,1.362135E2,1.51206665E1,0E0,2.2659912E0,0E0,8.742391E1,0E0,6.3848267E0,0E0,0E0,0E0,2.201027E1,6.1370354E0,0E0,0E0,0E0,0E0,0E0,0E0],"parents":[2147483647,0,0,1,1,2,2,3,3,4,4,5,5,7,7,9,9,11,11,15,15,16,16],"right_children":[2,4,6,8,10,12,-1,14,-1,16,-1,18,-1,-1,-1,20,22,-1,-1,-1,-1,-1,-1],"split_conditions":[4.909E0,2.8485E0,6.2E0,1.821E0,6E0,1E0,7.119845E-2,2.379646E0,-3.4870874E-2,4.077E0,-3.7502907E-2,3.6595473E0,-0E0,-5.804491E-2,-1.2564679E-3,3.7735E0,4.9635E0,9.6574397E-4,4.2558633E-2,-1.1151659E-2,4.5234794E-4,7.585464E-3,2.1829152E-2],"split_indices":[6,6,5,5,0,2,0,6,0,5,0,4,0,0,0,6,5,0,0,0,0,0,0],"split_type":[0,0,0,0,0,0,0,0,0,0,0,0,0,0,0,0,0,0,0,0,0,0,0],"sum_hessian":[2.267E3,1.647E3,6.2E2,7.25E2,9.22E2,2.99E2,3.21E2,3.39E2,3.86E2,8.4E2,8.2E1,2.88E2,1.1E1,3.27E2,1.2E1,5.1E2,3.3E2,1.9E1,2.69E2,3.37E2,1.73E2,2.42E2,8.8E1],"tree_param":{"num_deleted":"0","num_feature":"10","num_nodes":"23","size_leaf_vector":"1"}},{"base_weights":[4.1853515E-3,-7.102209E-1,1.7650868E0,-1.4674652E0,-1.313948E-1,9.5836246E-1,2.1834285E0,-1.6510146E0,-2.440543E-2,2.1365276E-2,-1.1740855E0,-0E0,1.0726619E0,-0E0,6.5958194E-2,-3.5257984E-2,-5.6014072E-2,-1.97033E-1,3.913562E-1,-5.780716E-2,-7.2616327E-1,-0E0,3.3188257E-2,-8.778594E-3,-0E0,-0E0,1.461564E-2,-2.2364678E-2,-0E0],"categories":[],"categories_nodes":[],"categories_segments":[],"categories_sizes":[],"default_left":[0,0,0,0,0,0,0,0,0,0,0,0,0,0,0,0,0,0,0,0,0,0,0,0,0,0,0,0,0],"id":9,"left_children":[1,3,5,7,9,11,13,15,-1,17,19,-1,21,-1,-1,-1,-1,23,25,-1,27,-1,-1,-1,-1,-1,-1,-1,-1],"loss_changes":[2.8523242E3,6.846985E2,1.6904822E2,4.4265625E1,1.59432E2,2.8120514E1,3.4990234E0,4.814453E-1,0E0,6.816669E1,2.301834E0,0E0,1.0286926E1,0E0,0E0,0E0,0E0,8.71327E0,1.634494E1,0E0,1.7910767E-1,0E0,0E0,0E0,0E0,0E0,0E0,0E0,0E0],"parents":[2147483647,0,0,1,1,2,2,3,3,4,4,5,5,6,6,7,7,9,9,10,10,12,12,17,17,18,18,20,20],"right_children":[2,4,6,8,10,12,14,16,-1,18,20,-1,22,-1,-1,-1,-1,24,26,-1,28,-1,-1,-1,-1,-1,-1,-1,-1],"split_conditions":[8.125E1,4.7E1,9.475E1,4.1E1,6E0,3.16E2,4.245E0,5E0,-2.440543E-2,4.077E0,4.66E2,-0E0,3.65E0,-0E0,6.5958194E-2,-3.5257984E-2,-5.6014072E-2,6.35E1,1.8E2,-5.780716E-2,4.418E0,-0E0,3.3188257E-2,-8.778594E-3,-0E0,-0E0,1.461564E-2,-2.2364678E-2,-0E0],"split_indices":[9,9,9,8,0,3,5,0,0,5,3,0,5,0,0,0,0,9,3,0,5,0,0,0,0,0,0,0,0],"split_type":[0,0,0,0,0,0,0,0,0,0,0,0,0,0,0,0,0,0,0,0,0,0,0,0,0,0,0,0,0],"sum_hessian":[2.239E3,1.593E3,6.46E2,6.76E2,9.17E2,2.4E2,4.06E2,5.04E2,1.72E2,8E2,1.17E2,2.6E1,2.14E2,5E0,4.01E2,1.92E2,3.12E2,4.89E2,3.11E2,2.3E1,9.4E1,5E0,2.09E2,3.18E2,1.71E2,4.5E1,2.66E2,8.9E1,5E0],"tree_param":{"num_deleted":"0","num_feature":"10","num_nodes":"29","size_leaf_vector":"1"}},{"base_weights":[1.538658E-2,-6.64461E-1,1.7653067E0,-1.432626E0,-6.984024E-2,1.1593381E0,2.1882238E0,-1.7791735E0,-3.238854E-2,3.166351E-2,-1.1731253E0,4.000289E-1,1.3356955E0,1.2488263E-3,6.680428E-2,-5.432495E-2,-0E0,-3.0026722E-1,2.698703E-1,-5.24148E-2,-4.5694965E-1,4.5518804E-1,-0E0,-0E0,4.1059E-2,-1.1550389E-2,4.133248E-3,-2.19702E-4,1.0874827E-2,-1.50336595E-2,-0E0,1.5053982E-2,-0E0],"categories":[],"categories_nodes":[],"categories_segments":[],"categories_sizes":[],"default_left":[0,0,0,0,0,0,0,0,0,0,0,0,0,0,0,0,0,0,0,0,0,0,0,0,0,0,0,0,0,0,0,0,0],"id":10,"left_children":[1,3,5,7,9,11,13,15,-1,17,19,21,23,-1,-1,-1,-1,25,27,-1,29,31,-1,-1,-1,-1,-1,-1,-1,-1,-1,-1,-1],"loss_changes":[2.6935676E3,7.2393713E2,1.0388965E2,3.771521E1,1.160465E2,1.6401276E1,5.626831E0,3.9190674E0,0E0,6.803057E1,5.741806E0,2.5306635E0,2.9161377E0,0E0,0E0,0E0,0E0,1.5772873E1,1.6929142E1,0E0,1.0324774E0,2.0418692E0,0E0,0E0,0E0,0E0,0E0,0E0,0E0,0E0,0E0,0E0,0E0],"parents":[2147483647,0,0,1,1,2,2,3,3,4,4,5,5,6,6,7,7,9,9,10,10,11,11,12,12,17,17,18,18,20,20,21,21],"right_children":[2,4,6,8,10,12,14,16,-1,18,20,22,24,-1,-1,-1,-1,26,28,-1,30,32,-1,-1,-1,-1,-1,-1,-1,-1,-1,-1,-1],"split_conditions":[4.909E0,2.8485E0,6.09725E0,1.821E0,6E0,4.320171E0,4.2227607E0,2.3585E0,-3.238854E-2,3.6575E0,5.83E2,9.875E1,2.56E2,1.2488263E-3,6.680428E-2,-5.432495E-2,-0E0,4.077E0,1.8E2,-5.24148E-2,4.539E0,1.027E3,-0E0,-0E0,4.1059E-2,-1.1550389E-2,4.133248E-3,-2.19702E-4,1.0874827E-2,-1.50336595E-2,-0E0,1.5053982E-2,-0E0],"split_indices":[6,6,6,5,0,4,4,6,0,6,3,9,3,0,0,0,0,5,3,0,5,3,0,0,0,0,0,0,0,0,0,0,0],"split_type":[0,0,0,0,0,0,0,0,0,0,0,0,0,0,0,0,0,0,0,0,0,0,0,0,0,0,0,0,0,0,0,0,0],"sum_hessian":[2.235E3,1.61E3,6.25E2,6.89E2,9.21E2,2.82E2,3.43E2,3.13E2,3.76E2,8.44E2,7.7E1,7E1,2.12E2,1.1E1,3.32E2,3.03E2,1E1,3.34E2,5.1E2,2.7E1,5E1,6.4E1,6E0,9E0,2.03E2,3E2,3.4E1,1.03E2,4.07E2,4.4E1,6E0,5.9E1,5E0],"tree_param":{"num_deleted":"0","num_feature":"10","num_nodes":"33","size_leaf_vector":"1"}},{"base_weights":[-1.9061567E-2,-6.8316114E-1,1.6372865E0,-1.4682429E0,-1.6967402E-1,9.304215E-1,2.0531688E0,-1.6960925E0,-3.0664654E-2,-4.6024993E-3,-1.1072112E0,-0E0,1.0266662E0,6.814779E-1,2.1376524E0,-5.1290546E-2,-0E0,-2.9056153E-1,3.0632713E-1,-0E0,-3.3880055E-2,2.2193063E-3,-0E0,1.0741158E0,-0E0,2.2388274E-2,-0E0,-0E0,6.488755E-2,-1.2422115E-2,-1.0845461E-3,-0E0,1.2641236E-2,3.670476E-2,1.1632842E-2],"categories":[],"categories_nodes":[],"categories_segments":[],"categories_sizes":[],"default_left":[0,0,0,0,0,0,0,0,0,0,0,0,0,0,0,0,0,0,0,0,0,0,0,0,0,0,0,0,0,0,0,0,0,0,0],"id":11,"left_children":[1,3,5,7,9,11,13,15,-1,17,19,21,23,25,27,-1,-1,29,31,-1,-1,-1,-1,33,-1,-1,-1,-1,-1,-1,-1,-1,-1,-1,-1],"loss_changes":[2.4743992E3,6.325866E2,1.3979138E2,1.9514526E1,1.4297256E2,2.0402023E1,2.088501E0,3.770752E-1,0E0,7.773119E1,5.5036926E-1,1.3681448E-1,1.0933472E1,7.2911644E-1,9.313965E-1,0E0,0E0,1.0210651E1,1.7581593E1,0E0,0E0,0E0,0E0,2.3139038E0,0E0,0E0,0E0,0E0,0E0,0E0,0E0,0E0,0E0,0E0,0E0],"parents":[2147483647,0,0,1,1,2,2,3,3,4,4,5,5,6,6,7,7,9,9,10,10,11,11,12,12,13,13,14,14,17,17,18,18,23,23],"right_children":[2,4,6,8,10,12,14,16,-1,18,20,22,24,26,28,-1,-1,30,32,-1,-1,-1,-1,34,-1,-1,-1,-1,-1,-1,-1,-1,-1,-1,-1],"split_conditions":[8.125E1,4.375E1,5.839E0,3.45E1,6E0,3.16E2,4.52E2,4.3E1,-3.0664654E-2,6.5E1,4.5E1,4E0,1E0,4.3E2,4.2227607E0,-5.1290546E-2,-0E0,3.395E0,1.8E2,-0E0,-3.3880055E-2,2.2193063E-3,-0E0,5E0,-0E0,2.2388274E-2,-0E0,-0E0,6.488755E-2,-1.2422115E-2,-1.0845461E-3,-0E0,1.2641236E-2,3.670476E-2,1.1632842E-2],"split_indices":[9,9,5,9,0,3,3,8,0,8,9,0,2,3,4,0,0,5,3,0,0,0,0,0,0,0,0,0,0,0,0,0,0,0,0],"split_type":[0,0,0,0,0,0,0,0,0,0,0,0,0,0,0,0,0,0,0,0,0,0,0,0,0,0,0,0,0,0,0,0,0,0,0],"sum_hessian":[2.238E3,1.606E3,6.32E2,6.2E2,9.86E2,2.55E2,3.77E2,3.77E2,2.43E2,8.56E2,1.3E2,2.8E1,2.27E2,3.4E1,3.43E2,3.71E2,6E0,4.63E2,3.93E2,5E0,1.25E2,1.5E1,1.3E1,2.16E2,1.1E1,2.8E1,6E0,8E0,3.35E2,2.81E2,1.82E2,9.1E1,3.02E2,1.59E2,5.7E1],"tree_param":{"num_deleted":"0","num_feature":"10","num_nodes":"35","size_leaf_vector":"1"}},{"base_weights":[-0E0,-6.4612454E-1,1.6889094E0,-1.345428E0,-7.8981616E-2,1.0158963E0,2.02632E0,-5.2025713E-2,-1.0569307E0,2.4206677E-2,-1.1403137E0,-0E0,1.0840992E0,-0E0,6.126201E-2,-3.1916566E-2,-0E0,-1.9282612E-1,3.6003804E-1,-5.4960746E-2,-4.7970605E-1,-0E0,3.290254E-2,-8.824702E-3,1.9939028E-4,-6.4537354E-4,1.4234039E-2,-1.5422193E-2,-0E0],"categories":[],"categories_nodes":[],"categories_segments":[],"categories_sizes":[],"default_left":[0,0,0,0,0,0,0,0,0,0,0,0,0,0,0,0,0,0,0,0,0,0,0,0,0,0,0,0,0],"id":12,"left_children":[1,3,5,7,9,11,13,-1,15,17,19,-1,21,-1,-1,-1,-1,23,25,-1,27,-1,-1,-1,-1,-1,-1,-1,-1],"loss_changes":[2.5243323E3,6.4583374E2,9.455188E1,3.6531616E1,1.14273605E2,1.6142715E1,1.0541992E0,0E0,1.1847534E0,6.483003E1,1.0133728E1,0E0,2.7676392E-1,0E0,0E0,0E0,0E0,1.3182905E1,2.0262188E1,0E0,4.7252846E-1,0E0,0E0,0E0,0E0,0E0,0E0,0E0,0E0],"parents":[2147483647,0,0,1,1,2,2,3,3,4,4,5,5,6,6,8,8,9,9,10,10,12,12,17,17,18,18,20,20],"right_children":[2,4,6,8,10,12,14,-1,16,18,20,-1,22,-1,-1,-1,-1,24,26,-1,28,-1,-1,-1,-1,-1,-1,-1,-1],"split_conditions":[4.909E0,2.8485E0,9.646831E1,1.7665E0,6E0,3.2E2,4.245E0,-5.2025713E-2,5.75E1,4.0353713E0,5.41E2,-0E0,3.421E0,-0E0,6.126201E-2,-3.1916566E-2,-0E0,3.868E0,1.94E2,-5.4960746E-2,4.539E0,-0E0,3.290254E-2,-8.824702E-3,1.9939028E-4,-6.4537354E-4,1.4234039E-2,-1.5422193E-2,-0E0],"split_indices":[6,6,9,6,0,3,5,0,9,6,3,0,5,0,0,0,0,5,3,0,5,0,0,0,0,0,0,0,0],"split_type":[0,0,0,0,0,0,0,0,0,0,0,0,0,0,0,0,0,0,0,0,0,0,0,0,0,0,0,0,0],"sum_hessian":[2.288E3,1.657E3,6.31E2,7.28E2,9.29E2,2.34E2,3.97E2,2.74E2,4.54E2,8.47E2,8.2E1,1.6E1,2.18E2,6E0,3.91E2,4.49E2,5E0,4.99E2,3.48E2,2.4E1,5.8E1,5E0,2.13E2,3.61E2,1.38E2,6.2E1,2.86E2,5.1E1,7E0],"tree_param":{"num_deleted":"0","num_feature":"10","num_nodes":"29","size_leaf_vector":"1"}},{"base_weights":[-1.8027818E-2,-7.4926114E-1,1.3181003E0,-1.3204498E0,-1.8355751E-1,5.001098E-1,1.7775698E0,-4.7437854E-2,-9.6878207E-1,-7.319444E-2,-2.895254E-2,5.964072E-1,-2.545587E-2,2.4678567E-2,1.9170152E0,-9.7806495E-1,-0E0,-2.4644583E-1,1.4412226E-1,-0E0,1.849998E-2,5.8922317E-2,5.6574658E-2,-2.9586669E-2,-0E0,-1.093161E-2,-0E0,1.4997706E-4,8.848985E-3,2.9767614E-3,-0E0],"categories":[],"categories_nodes":[],"categories_segments":[],"categories_sizes":[],"default_left":[0,0,0,0,0,0,0,0,0,0,0,0,0,0,0,0,0,0,0,0,0,0,0,0,0,0,0,0,0,0,0],"id":13,"left_children":[1,3,5,7,9,11,13,-1,15,17,-1,19,-1,-1,21,23,-1,25,27,-1,-1,-1,29,-1,-1,-1,-1,-1,-1,-1,-1],"loss_changes":[2.2366816E3,4.6334406E2,2.716377E2,2.6135498E1,5.515216E1,4.305902E1,2.408142E1,0E0,1.5964966E0,2.754546E1,0E0,3.287918E0,0E0,0E0,1.580603E1,7.129822E-1,0E0,8.857929E0,3.0505133E0,0E0,0E0,0E0,1.13695525E-1,0E0,0E0,0E0,0E0,0E0,0E0,0E0,0E0],"parents":[2147483647,0,0,1,1,2,2,3,3,4,4,5,5,6,6,8,8,9,9,11,11,14,14,15,15,17,17,18,18,22,22],"right_children":[2,4,6,8,10,12,14,-1,16,18,-1,20,-1,-1,22,24,-1,26,28,-1,-1,-1,30,-1,-1,-1,-1,-1,-1,-1,-1],"split_conditions":[4.4236903E0,2.8485E0,5.3315E0,2.0525E0,6E0,6E0,4.320171E0,-4.7437854E-2,7.4E1,6.5E1,-2.895254E-2,7E1,-2.545587E-2,2.4678567E-2,5E0,5.75E1,-0E0,3.579E0,4.1125426E0,-0E0,1.849998E-2,5.8922317E-2,9.098355E1,-2.9586669E-2,-0E0,-1.093161E-2,-0E0,1.4997706E-4,8.848985E-3,2.9767614E-3,-0E0],"split_indices":[6,6,6,6,0,0,4,0,8,8,0,9,0,0,0,9,0,6,6,0,0,0,9,0,0,0,0,0,0,0,0],"split_type":[0,0,0,0,0,0,0,0,0,0,0,0,0,0,0,0,0,0,0,0,0,0,0,0,0,0,0,0,0,0,0],"sum_hessian":[2.275E3,1.478E3,7.97E2,7.2E2,7.58E2,3.02E2,4.95E2,3.77E2,3.43E2,6.85E2,7.3E1,2.94E2,8E0,8.1E1,4.14E2,3.38E2,5E0,4.06E2,2.79E2,1.1E1,2.83E2,3.98E2,1.6E1,3.33E2,5E0,2.47E2,1.59E2,1.85E2,9.4E1,1E1,6E0],"tree_param":{"num_deleted":"0","num_feature":"10","num_nodes":"31","size_leaf_vector":"1"}},{"base_weights":[-1.1888361E-2,-6.4247614E-1,1.5819055E0,-1.2533827E0,-8.480072E-2,9.433483E-1,1.9043949E0,-4.8315786E-2,-2.8465392E-2,-2.7957228E-1,1.8832731E-1,3.8847916E-2,3.0605016E-2,-0E0,1.9328996E0,-3.6630526E-1,-1.1496334E-2,5.2536707E-2,5.4475665E-1,-0E0,8.361067E-2,5.9625793E-2,3.6767358E-1,-1.3257053E-2,-7.8937283E-4,5.5585976E-4,-5.336279E-3,4.118685E-3,-1.8421813E-3,-0E0,1.861751E-2,-0E0,2.954047E-3,-0E0,1.27574755E-2],"categories":[],"categories_nodes":[],"categories_segments":[],"categories_sizes":[],"default_left":[0,0,0,0,0,0,0,0,0,0,0,0,0,0,0,0,0,0,0,0,0,0,0,0,0,0,0,0,0,0,0,0,0,0,0],"id":14,"left_children":[1,3,5,7,9,11,13,-1,-1,15,17,19,-1,-1,21,23,25,27,29,-1,31,-1,33,-1,-1,-1,-1,-1,-1,-1,-1,-1,-1,-1,-1],"loss_changes":[2.307306E3,5.4973376E2,8.720447E1,4.4068848E1,4.8518814E1,6.2452545E0,1.1330688E1,0E0,0E0,8.781929E0,1.0825983E1,1.843096E-1,0E0,0E0,3.5129395E0,4.9941483E0,2.4806697E0,3.614688E0,3.634697E0,0E0,4.6203777E-2,0E0,3.7587595E-1,0E0,0E0,0E0,0E0,0E0,0E0,0E0,0E0,0E0,0E0,0E0,0E0],"parents":[2147483647,0,0,1,1,2,2,3,3,4,4,5,5,6,6,9,9,10,10,11,11,14,14,15,15,16,16,17,17,18,18,20,20,22,22],"right_children":[2,4,6,8,10,12,14,-1,-1,16,18,20,-1,-1,22,24,26,28,30,-1,32,-1,34,-1,-1,-1,-1,-1,-1,-1,-1,-1,-1,-1,-1],"split_conditions":[4.909E0,2.96625E0,5.829669E0,1.785E0,4.0353713E0,4.2227607E0,4.2227607E0,-4.8315786E-2,-2.8465392E-2,3.842E0,4.9635E0,7.3E1,3.0605016E-2,-0E0,1E0,3.6575E0,6.2653847E1,7.887838E1,8.022078E1,-0E0,4.583E0,5.9625793E-2,1.02E2,-1.3257053E-2,-7.8937283E-4,5.5585976E-4,-5.336279E-3,4.118685E-3,-1.8421813E-3,-0E0,1.861751E-2,-0E0,2.954047E-3,-0E0,1.27574755E-2],"split_indices":[6,6,6,5,6,4,4,0,0,5,5,8,0,0,2,6,9,8,8,0,5,0,8,0,0,0,0,0,0,0,0,0,0,0,0],"split_type":[0,0,0,0,0,0,0,0,0,0,0,0,0,0,0,0,0,0,0,0,0,0,0,0,0,0,0,0,0,0,0,0,0,0,0],"sum_hessian":[2.285E3,1.646E3,6.39E2,7.71E2,8.75E2,2.38E2,4.01E2,3.2E2,4.51E2,5.32E2,3.43E2,3E1,2.08E2,9E0,3.92E2,3.71E2,1.61E2,2.77E2,6.6E1,5E0,2.5E1,3.7E2,2.2E1,2.77E2,9.4E1,9.3E1,6.8E1,2.08E2,6.9E1,8E0,5.8E1,5E0,2E1,6E0,1.6E1],"tree_param":{"num_deleted":"0","num_feature":"10","num_nodes":"35","size_leaf_vector":"1"}},{"base_weights":[-0E0,-6.011821E-1,1.5537039E0,-1.1826419E0,-0E0,1.0790784E0,2.0022643E0,-1.3979076E0,-6.5977013E-1,7.601249E-2,-1.055902E0,-0E0,1.1375304E0,2.6982722E-3,6.1297357E-2,-4.2410593E-2,-0E0,-0E0,-1.9995991E-2,-6.0830496E-2,3.4006855E-1,-0E0,-3.4603495E-2,-0E0,3.4560204E-2,-5.150575E-3,6.593496E-4,-0E0,1.3491772E-2],"categories":[],"categories_nodes":[],"categories_segments":[],"categories_sizes":[],"default_left":[0,0,0,0,0,0,0,0,0,0,0,0,0,0,0,0,0,0,0,0,0,0,0,0,0,0,0,0,0],"id":15,"left_children":[1,3,5,7,9,11,13,15,17,19,21,-1,23,-1,-1,-1,-1,-1,-1,25,27,-1,-1,-1,-1,-1,-1,-1,-1],"loss_changes":[2.1388862E3,5.715232E2,8.362244E1,6.4184814E1,7.137361E1,1.5973389E1,8.112793E-1,5.2579346E0,2.5431824E-1,3.100327E1,4.948372E0,0E0,2.2369385E-2,0E0,0E0,0E0,0E0,0E0,0E0,6.06963E0,1.3269588E1,0E0,0E0,0E0,0E0,0E0,0E0,0E0,0E0],"parents":[2147483647,0,0,1,1,2,2,3,3,4,4,5,5,6,6,7,7,8,8,9,9,10,10,12,12,19,19,20,20],"right_children":[2,4,6,8,10,12,14,16,18,20,22,-1,24,-1,-1,-1,-1,-1,-1,26,28,-1,-1,-1,-1,-1,-1,-1,-1],"split_conditions":[4.909E0,3.1151955E0,6.395E0,4.1E1,6E0,3.2E2,4.43E2,2.8485E0,5.7E1,4.245E0,3.254E0,-0E0,7.875E1,2.6982722E-3,6.1297357E-2,-4.2410593E-2,-0E0,-0E0,-1.9995991E-2,3.7735E0,2.25E2,-0E0,-3.4603495E-2,-0E0,3.4560204E-2,-5.150575E-3,6.593496E-4,-0E0,1.3491772E-2],"split_indices":[6,6,5,8,0,3,3,6,3,5,6,0,9,0,0,0,0,0,0,6,3,0,0,0,0,0,0,0,0],"split_type":[0,0,0,0,0,0,0,0,0,0,0,0,0,0,0,0,0,0,0,0,0,0,0,0,0,0,0,0,0],"sum_hessian":[2.269E3,1.64E3,6.29E2,8.25E2,8.15E2,3.33E2,2.96E2,5.59E2,2.66E2,7.65E2,5E1,2.2E1,3.11E2,1.2E1,2.84E2,5.49E2,1E1,5E0,2.61E2,4.84E2,2.81E2,6E0,4.4E1,8E0,3.03E2,2.54E2,2.3E2,5.9E1,2.22E2],"tree_param":{"num_deleted":"0","num_feature":"10","num_nodes":"29","size_leaf_vector":"1"}},{"base_weights":[-1.8308645E-2,-7.193953E-1,1.2143131E0,-1.2783085E0,-2.499332E-1,6.337116E-1,1.7961687E0,-4.863241E-2,-1.0129772E0,-4.9322405E-1,-4.771327E-3,-4.011841E-1,7.583597E-1,5.6761663E-2,5.2104706E-1,-1.0420437E0,-0E0,-1.5841193E-2,-0E0,2.5275996E-2,-1.7749773E-2,-0E0,-2.349764E-2,2.1532057E-1,8.572198E-1,-0E0,1.9327655E-2,-3.1532116E-2,-0E0,-0E0,-6.3637807E-4,-4.255978E-4,7.3276344E-3,-0E0,8.181459E-3,-0E0,2.6887018E-2],"categories":[],"categories_nodes":[],"categories_segments":[],"categories_sizes":[],"default_left":[0,0,0,0,0,0,0,0,0,0,0,0,0,0,0,0,0,0,0,0,0,0,0,0,0,0,0,0,0,0,0,0,0,0,0,0,0],"id":16,"left_children":[1,3,5,7,9,11,13,-1,15,17,19,21,23,-1,25,27,-1,-1,29,31,-1,-1,-1,33,35,-1,-1,-1,-1,-1,-1,-1,-1,-1,-1,-1,-1],"loss_changes":[1.9784254E3,3.6670917E2,2.4370105E2,1.7082031E1,4.390595E1,6.311522E1,1.4795166E1,0E0,1.926178E0,2.191719E0,1.3554883E1,6.254044E0,9.063843E0,0E0,4.959836E0,7.9693604E-1,0E0,0E0,1.7549006E-2,5.8869696E0,0E0,0E0,0E0,1.6564889E0,2.7502136E0,0E0,0E0,0E0,0E0,0E0,0E0,0E0,0E0,0E0,0E0,0E0,0E0],"parents":[2147483647,0,0,1,1,2,2,3,3,4,4,5,5,6,6,8,8,9,9,10,10,11,11,12,12,14,14,15,15,18,18,19,19,23,23,24,24],"right_children":[2,4,6,8,10,12,14,-1,16,18,20,22,24,-1,26,28,-1,-1,30,32,-1,-1,-1,34,36,-1,-1,-1,-1,-1,-1,-1,-1,-1,-1,-1,-1],"split_conditions":[4.34425E0,2.6196513E0,5.829669E0,1.65925E0,3.378E0,2.12E2,1E0,-4.863241E-2,3.019E0,3.7895E0,6E0,5E0,4.2227607E0,5.6761663E-2,4.749E0,5.05E1,-0E0,-1.5841193E-2,6.425E1,4.1125426E0,-1.7749773E-2,-0E0,-2.349764E-2,6.35E2,2.83E2,-0E0,1.9327655E-2,-3.1532116E-2,-0E0,-0E0,-6.3637807E-4,-4.255978E-4,7.3276344E-3,-0E0,8.181459E-3,-0E0,2.6887018E-2],"split_indices":[6,6,6,6,5,3,7,0,5,6,0,0,4,0,5,9,0,0,9,6,0,0,0,3,3,0,0,0,0,0,0,0,0,0,0,0,0],"split_type":[0,0,0,0,0,0,0,0,0,0,0,0,0,0,0,0,0,0,0,0,0,0,0,0,0,0,0,0,0,0,0,0,0,0,0,0,0],"sum_hessian":[2.275E3,1.458E3,8.17E2,6.48E2,8.1E2,4.28E2,3.89E2,2.44E2,4.04E2,3.81E2,4.29E2,3.5E1,3.93E2,3.5E2,3.9E1,3.83E2,2.1E1,3.39E2,4.2E1,4.01E2,2.8E1,2.3E1,1.2E1,8.1E1,3.12E2,5E0,3.4E1,3.77E2,6E0,1.3E1,2.9E1,3.09E2,9.2E1,1.2E1,6.9E1,2.4E1,2.88E2],"tree_param":{"num_deleted":"0","num_feature":"10","num_nodes":"37","size_leaf_vector":"1"}},{"base_weights":[1.976827E-2,-5.368997E-1,1.4552759E0,-1.1572106E0,-4.6186242E-2,1.0832322E0,1.9518307E0,-1.3046008E0,-1.858854E-2,3.995036E-2,-1.0142158E0,3.5992903E-1,1.2089821E0,6.0715634E-2,2.9054886E-1,-3.9364927E-2,-0E0,-1.7724729E-1,2.946462E-1,-0E0,-3.285338E-2,4.0634283E-1,-0E0,1.3036774E0,1.746872E-1,1.0758265E-2,-0E0,-8.785061E-3,1.0605354E-3,1.622089E-3,1.2424896E-2,-0E0,1.345036E-2,3.9824817E-2,-0E0,5.9308414E-3,-0E0],"categories":[],"categories_nodes":[],"categories_segments":[],"categories_sizes":[],"default_left":[0,0,0,0,0,0,0,0,0,0,0,0,0,0,0,0,0,0,0,0,0,0,0,0,0,0,0,0,0,0,0,0,0,0,0,0,0],"id":17,"left_children":[1,3,5,7,9,11,13,15,-1,17,19,21,23,-1,25,-1,-1,27,29,-1,-1,31,-1,33,35,-1,-1,-1,-1,-1,-1,-1,-1,-1,-1,-1,-1],"loss_changes":[1.850934E3,4.915095E2,6.840283E1,2.988263E1,8.886118E1,1.6796295E1,1.3671875E0,4.1619873E-1,0E0,4.9658104E1,2.8527985E0,2.067954E0,1.5162201E1,0E0,5.94085E-1,0E0,0E0,1.3810311E1,7.2850037E0,0E0,0E0,8.6178875E-1,0E0,2.3755188E0,2.158277E-1,0E0,0E0,0E0,0E0,0E0,0E0,0E0,0E0,0E0,0E0,0E0,0E0],"parents":[2147483647,0,0,1,1,2,2,3,3,4,4,5,5,6,6,7,7,9,9,10,10,11,11,12,12,14,14,17,17,18,18,21,21,23,23,24,24],"right_children":[2,4,6,8,10,12,14,16,-1,18,20,22,24,-1,26,-1,-1,28,30,-1,-1,32,-1,34,36,-1,-1,-1,-1,-1,-1,-1,-1,-1,-1,-1,-1],"split_conditions":[4.909E0,2.8485E0,6.51325E0,4.1E1,6E0,4.320171E0,1E0,2.6192207E0,-1.858854E-2,3.842E0,2.96625E0,1.08E2,5E0,6.0715634E-2,3E0,-3.9364927E-2,-0E0,3.7735E0,4.1125426E0,-0E0,-3.285338E-2,4.393E0,-0E0,1E0,5.57774E0,1.0758265E-2,-0E0,-8.785061E-3,1.0605354E-3,1.622089E-3,1.2424896E-2,-0E0,1.345036E-2,3.9824817E-2,-0E0,5.9308414E-3,-0E0],"split_indices":[6,6,6,8,0,4,7,5,0,5,6,8,0,0,0,0,0,6,6,0,0,5,0,2,6,0,0,0,0,0,0,0,0,0,0,0,0],"split_type":[0,0,0,0,0,0,0,0,0,0,0,0,0,0,0,0,0,0,0,0,0,0,0,0,0,0,0,0,0,0,0,0,0,0,0,0,0],"sum_hessian":[2.285E3,1.646E3,6.39E2,7.12E2,9.34E2,3.95E2,2.44E2,5.33E2,1.79E2,8.57E2,7.7E1,7.6E1,3.19E2,2.26E2,1.8E1,5.27E2,6E0,4.43E2,4.14E2,1E1,6.7E1,7E1,6E0,2.81E2,3.8E1,1.3E1,5E0,3.15E2,1.28E2,1.7E2,2.44E2,1E1,6E1,2.72E2,9E0,3.3E1,5E0],"tree_param":{"num_deleted":"0","num_feature":"10","num_nodes":"37","size_leaf_vector":"1"}},{"base_weights":[-0E0,-6.33321E-1,1.1626644E0,-1.1280148E0,-1.4054622E-1,4.7207153E-1,1.5390495E0,-4.4134606E-2,-2.6389495E-2,-4.0773444E-2,-8.5950834E-1,-1.9862537E-1,5.8315444E-1,1.873314E-2,1.6533532E0,-1.9007446E-1,1.4598447E-1,-4.0877763E-2,-3.0725265E-1,-0E0,-1.2454487E-2,-0E0,1.77316E-2,5.0941635E-2,2.8821204E-2,-9.067955E-3,-0E0,-0E0,8.3715E-3,-9.896393E-3,-0E0,-0E0,2.5156275E-3],"categories":[],"categories_nodes":[],"categories_segments":[],"categories_sizes":[],"default_left":[0,0,0,0,0,0,0,0,0,0,0,0,0,0,0,0,0,0,0,0,0,0,0,0,0,0,0,0,0,0,0,0,0],"id":18,"left_children":[1,3,5,7,9,11,13,-1,-1,15,17,19,21,-1,23,25,27,-1,29,-1,-1,-1,-1,-1,31,-1,-1,-1,-1,-1,-1,-1,-1],"loss_changes":[1.7028456E3,3.4943787E2,1.8498523E2,2.6019897E1,4.5809288E1,2.8248505E1,2.0737915E1,0E0,0E0,2.0180817E1,1.6192551E0,2.425402E0,8.780899E-1,0E0,1.4339355E1,9.696299E0,5.8967333E0,0E0,2.2648096E-1,0E0,0E0,0E0,0E0,0E0,1.3846678E-1,0E0,0E0,0E0,0E0,0E0,0E0,0E0,0E0],"parents":[2147483647,0,0,1,1,2,2,3,3,4,4,5,5,6,6,9,9,10,10,11,11,12,12,14,14,15,15,16,16,18,18,24,24],"right_children":[2,4,6,8,10,12,14,-1,-1,16,18,20,22,-1,24,26,28,-1,30,-1,-1,-1,-1,-1,32,-1,-1,-1,-1,-1,-1,-1,-1],"split_conditions":[4.4236903E0,2.8485E0,5.3315E0,1.7665E0,6E0,2.12E2,4.319782E0,-4.4134606E-2,-2.6389495E-2,6.5E1,5.83E2,4E0,2.5030675E0,1.873314E-2,5E0,3.6575E0,3.16E2,-4.0877763E-2,7.9E1,-0E0,-1.2454487E-2,-0E0,1.77316E-2,5.0941635E-2,5.53E2,-9.067955E-3,-0E0,-0E0,8.3715E-3,-9.896393E-3,-0E0,-0E0,2.5156275E-3],"split_indices":[6,6,6,6,0,3,4,0,0,8,3,0,4,0,0,6,3,0,8,0,0,0,0,0,3,0,0,0,0,0,0,0,0],"split_type":[0,0,0,0,0,0,0,0,0,0,0,0,0,0,0,0,0,0,0,0,0,0,0,0,0,0,0,0,0,0,0,0,0],"sum_hessian":[2.289E3,1.482E3,8.07E2,7.23E2,7.59E2,3.02E2,5.05E2,2.66E2,4.57E2,6.88E2,7.1E1,2.9E1,2.73E2,7.3E1,4.32E2,4.12E2,2.76E2,2E1,5.1E1,1.6E1,1.3E1,5E0,2.68E2,4.14E2,1.8E1,2.63E2,1.49E2,1.32E2,1.44E2,4.5E1,6E0,5E0,1.3E1],"tree_param":{"num_deleted":"0","num_feature":"10","num_nodes":"33","size_leaf_vector":"1"}},{"base_weights":[1.0642562E-2,-5.156294E-1,1.4262545E0,-1.0742164E0,-2.5080362E-2,1.0894259E0,1.8866833E0,-1.2162621E0,-4.89442E-1,5.7479955E-2,-1.0328304E0,1.376876E-1,1.1586694E0,-0E0,5.754633E-2,-1.3950154E0,-2.5000243E-2,-0E0,-1.5269589E-2,-9.8789416E-2,3.3872312E-1,-1.2617544E-2,-4.9894553E-2,-0E0,2.0117746E-1,-0E0,3.6267586E-2,-2.752511E-2,-4.980597E-2,-5.0874115E-3,2.7780659E-3,-2.0057202E-4,1.2693482E-2,6.5897293E-3,-0E0,-0E0,3.8004137E-4],"categories":[],"categories_nodes":[],"categories_segments":[],"categories_sizes":[],"default_left":[0,0,0,0,0,0,0,0,0,0,0,0,0,0,0,0,0,0,0,0,0,0,0,0,0,0,0,0,0,0,0,0,0,0,0,0,0],"id":19,"left_children":[1,3,5,7,9,11,13,15,17,19,21,23,25,-1,-1,27,-1,-1,-1,29,31,-1,-1,-1,33,35,-1,-1,-1,-1,-1,-1,-1,-1,-1,-1,-1],"loss_changes":[1.7076035E3,4.4277927E2,4.6303223E1,4.0534546E1,8.539372E1,1.15381775E1,2.673645E0,6.817993E0,1.4399071E0,3.9388004E1,2.2687683E0,7.4938923E-1,1.1900665E1,0E0,0E0,6.2229614E0,0E0,0E0,0E0,7.985742E0,1.3608067E1,0E0,0E0,0E0,7.761419E-2,3.5305468E-3,0E0,0E0,0E0,0E0,0E0,0E0,0E0,0E0,0E0,0E0,0E0],"parents":[2147483647,0,0,1,1,2,2,3,3,4,4,5,5,6,6,7,7,8,8,9,9,10,10,11,11,12,12,15,15,19,19,20,20,24,24,25,25],"right_children":[2,4,6,8,10,12,14,16,18,20,22,24,26,-1,-1,28,-1,-1,-1,30,32,-1,-1,-1,34,36,-1,-1,-1,-1,-1,-1,-1,-1,-1,-1,-1],"split_conditions":[4.909E0,2.936E0,6.738E0,4.3E1,6E0,4.2227607E0,4.43E2,4.43E2,1.89E2,4.1125426E0,7E0,4.561E0,3.2E2,-0E0,5.754633E-2,5E0,-2.5000243E-2,-0E0,-1.5269589E-2,4.16E0,1.66E2,-1.2617544E-2,-4.9894553E-2,-0E0,1.014E3,8.4386665E1,3.6267586E-2,-2.752511E-2,-4.980597E-2,-5.0874115E-3,2.7780659E-3,-2.0057202E-4,1.2693482E-2,6.5897293E-3,-0E0,-0E0,3.8004137E-4],"split_indices":[6,6,5,8,0,4,3,3,3,6,0,5,3,0,0,0,0,0,0,5,3,0,0,0,3,8,0,0,0,0,0,0,0,0,0,0,0],"split_type":[0,0,0,0,0,0,0,0,0,0,0,0,0,0,0,0,0,0,0,0,0,0,0,0,0,0,0,0,0,0,0,0,0,0,0,0,0],"sum_hessian":[2.26E3,1.647E3,6.13E2,7.55E2,8.92E2,3.86E2,2.27E2,5.85E2,1.7E2,8.24E2,6.8E1,3.8E1,3.48E2,7E0,2.2E2,3.63E2,2.22E2,8E0,1.62E2,5.11E2,3.13E2,5.1E1,1.7E1,7E0,3.1E1,2.1E1,3.27E2,1.59E2,2.04E2,4.12E2,9.9E1,4E1,2.73E2,2.6E1,5E0,9E0,1.2E1],"tree_param":{"num_deleted":"0","num_feature":"10","num_nodes":"37","size_leaf_vector":"1"}},{"base_weights":[-0E0,-5.167463E-1,1.3456228E0,-1.0254549E0,-2.2771535E-2,9.514302E-1,1.7072917E0,-1.1857017E0,-1.7271075E-2,-2.0383245E-1,1.9848268E-1,-0E0,9.9832284E-1,-0E0,1.7290276E0,-1.1988175E0,-0E0,-2.890103E-1,-0E0,-2.824434E-1,3.5435286E-1,-0E0,7.899317E-2,-0E0,3.0604158E-2,-0E0,5.3053495E-2,-3.615098E-2,-0E0,-9.689398E-3,-0E0,2.137017E-3,-2.285777E-3,-0E0,-1.3696705E-2,4.2786833E-4,1.4418909E-2,-0E0,3.4804086E-3],"categories":[],"categories_nodes":[],"categories_segments":[],"categories_sizes":[],"default_left":[0,0,0,0,0,0,0,0,0,0,0,0,0,0,0,0,0,0,0,0,0,0,0,0,0,0,0,0,0,0,0,0,0,0,0,0,0,0,0],"id":20,"left_children":[1,3,5,7,9,11,13,15,-1,17,19,21,23,-1,25,27,-1,29,31,33,35,-1,37,-1,-1,-1,-1,-1,-1,-1,-1,-1,-1,-1,-1,-1,-1,-1,-1],"loss_changes":[1.5496686E3,3.9285477E2,4.5418213E1,3.1847595E1,3.3908577E1,5.438263E0,4.2460938E0,5.7037964E0,0E0,7.748247E0,2.8406425E1,1.8719763E-1,1.030304E0,0E0,2.593628E0,8.3709717E-1,0E0,4.2729244E0,9.516833E-1,3.2373676E0,7.393856E0,0E0,1.4928138E-1,0E0,0E0,0E0,0E0,0E0,0E0,0E0,0E0,0E0,0E0,0E0,0E0,0E0,0E0,0E0,0E0],"parents":[2147483647,0,0,1,1,2,2,3,3,4,4,5,5,6,6,7,7,9,9,10,10,11,11,12,12,14,14,15,15,17,17,18,18,19,19,20,20,22,22],"right_children":[2,4,6,8,10,12,14,16,-1,18,20,22,24,-1,26,28,-1,30,32,34,36,-1,38,-1,-1,-1,-1,-1,-1,-1,-1,-1,-1,-1,-1,-1,-1,-1,-1],"split_conditions":[4.909E0,3.0035E0,6.3015E0,4.1E1,4.0353713E0,4.2227607E0,4.58E2,2.8485E0,-1.7271075E-2,3.842E0,1.8E2,6.35E2,2.83E2,-0E0,4.2227607E0,2.63E0,-0E0,1.056E3,6.05E1,4.308E0,4.319782E0,-0E0,7.487324E1,-0E0,3.0604158E-2,-0E0,5.3053495E-2,-3.615098E-2,-0E0,-9.689398E-3,-0E0,2.137017E-3,-2.285777E-3,-0E0,-1.3696705E-2,4.2786833E-4,1.4418909E-2,-0E0,3.4804086E-3],"split_indices":[6,6,6,8,6,4,3,6,0,5,3,3,3,0,4,5,0,3,9,6,4,0,8,0,0,0,0,0,0,0,0,0,0,0,0,0,0,0,0],"split_type":[0,0,0,0,0,0,0,0,0,0,0,0,0,0,0,0,0,0,0,0,0,0,0,0,0,0,0,0,0,0,0,0,0,0,0,0,0,0,0],"sum_hessian":[2.205E3,1.596E3,6.09E2,7.71E2,8.25E2,3.22E2,2.87E2,5.4E2,2.31E2,4.79E2,3.46E2,2.5E1,2.97E2,6E0,2.81E2,5.32E2,8E0,3.26E2,1.53E2,6.7E1,2.79E2,5E0,2E1,1.2E1,2.85E2,1.2E1,2.69E2,5.27E2,5E0,3E2,2.6E1,6.2E1,9.1E1,3.2E1,3.5E1,1E2,1.79E2,5E0,1.5E1],"tree_param":{"num_deleted":"0","num_feature":"10","num_nodes":"39","size_leaf_vector":"1"}},{"base_weights":[-3.3127272E-3,-6.935335E-1,9.1761845E-1,-1.1741421E0,-3.3183816E-1,3.0500087E-1,1.4399594E0,-3.540576E-2,-0E0,-5.550721E-1,-1.4262356E-1,-2.6424488E-1,4.3545416E-1,1.6823744E-2,1.5485976E0,-1.6807193E-2,-0E0,-2.633431E-1,-0E0,-0E0,-4.610722E-1,-0E0,4.931226E-1,-0E0,4.6938866E-2,-8.984244E-3,-0E0,-2.4345922E-3,2.6813566E-3,-1.6851956E-2,-0E0,-1.8156941E-4,-0E0,4.1451253E-4,1.5910229E-2],"categories":[],"categories_nodes":[],"categories_segments":[],"categories_sizes":[],"default_left":[0,0,0,0,0,0,0,0,0,0,0,0,0,0,0,0,0,0,0,0,0,0,0,0,0,0,0,0,0,0,0,0,0,0,0],"id":21,"left_children":[1,3,5,7,9,11,13,-1,-1,15,17,19,21,-1,23,-1,-1,25,27,-1,29,31,33,-1,-1,-1,-1,-1,-1,-1,-1,-1,-1,-1,-1],"loss_changes":[1.4432252E3,2.0807098E2,2.8791388E2,7.982788E-1,2.4797745E1,3.754217E1,1.9027954E1,0E0,0E0,3.0957794E-1,5.446739E0,4.6880007E0,1.3531288E1,0E0,9.669678E0,0E0,0E0,2.6968088E0,1.833066E0,0E0,3.364131E0,1.3553285E-3,1.0142059E0,0E0,0E0,0E0,0E0,0E0,0E0,0E0,0E0,0E0,0E0,0E0,0E0],"parents":[2147483647,0,0,1,1,2,2,3,3,4,4,5,5,6,6,9,9,10,10,11,11,12,12,14,14,17,17,18,18,20,20,21,21,22,22],"right_children":[2,4,6,8,10,12,14,-1,-1,16,18,20,22,-1,24,-1,-1,26,28,-1,30,32,34,-1,-1,-1,-1,-1,-1,-1,-1,-1,-1,-1,-1],"split_conditions":[4.0505E0,4.075E1,5.3315E0,5.1E1,3.1525E0,2.12E2,4.319782E0,-3.540576E-2,-0E0,7.8E1,3.52E2,4.308E0,6E1,1.6823744E-2,2.59E2,-1.6807193E-2,-0E0,7.025E1,4.423481E0,-0E0,5.0885897E0,4.423481E0,3.25E2,-0E0,4.6938866E-2,-8.984244E-3,-0E0,-2.4345922E-3,2.6813566E-3,-1.6851956E-2,-0E0,-1.8156941E-4,-0E0,4.1451253E-4,1.5910229E-2],"split_indices":[6,9,6,8,6,3,4,0,0,8,3,6,8,0,3,0,0,9,4,0,4,4,3,0,0,0,0,0,0,0,0,0,0,0,0],"split_type":[0,0,0,0,0,0,0,0,0,0,0,0,0,0,0,0,0,0,0,0,0,0,0,0,0,0,0,0,0,0,0,0,0,0,0],"sum_hessian":[2.254E3,1.296E3,9.58E2,5.35E2,7.61E2,4.57E2,5.01E2,5.3E2,5E0,3.16E2,4.45E2,6.9E1,3.88E2,7.2E1,4.29E2,3.11E2,5E0,2.02E2,2.43E2,3.1E1,3.8E1,3.2E1,3.56E2,5E0,4.24E2,1.84E2,1.8E1,1.81E2,6.2E1,3.3E1,5E0,2.7E1,5E0,4.6E1,3.1E2],"tree_param":{"num_deleted":"0","num_feature":"10","num_nodes":"35","size_leaf_vector":"1"}},{"base_weights":[-0E0,-4.8689774E-1,1.2236487E0,-1.1178764E0,-1.2421043E-1,1.3360054E0,9.15678E-2,-4.3307707E-2,-8.3550864E-1,-2.5965867E-3,-2.3317086E-2,1.0663995E0,1.8036419E0,-0E0,2.1699814E-1,-2.664848E-2,-0E0,-3.4874743E-1,1.702967E-1,2.2240896E-3,1.1055098E0,5.6382786E-2,-0E0,-0E0,2.624839E-1,-1.1041072E-2,-0E0,2.3514722E-3,1.8481594E-2,-0E0,3.340906E-2,9.069261E-3,-0E0],"categories":[],"categories_nodes":[],"categories_segments":[],"categories_sizes":[],"default_left":[0,0,0,0,0,0,0,0,0,0,0,0,0,0,0,0,0,0,0,0,0,0,0,0,0,0,0,0,0,0,0,0,0],"id":22,"left_children":[1,3,5,7,9,11,13,-1,15,17,-1,19,21,-1,23,-1,-1,25,27,-1,29,-1,-1,-1,31,-1,-1,-1,-1,-1,-1,-1,-1],"loss_changes":[1.3688995E3,3.5944153E2,6.79422E1,1.8858826E1,7.612524E1,2.6199219E1,2.64217E0,0E0,1.5542969E1,5.7078712E1,0E0,3.3339539E0,1.3340515E1,0E0,1.1132855E0,0E0,0E0,2.8955536E0,1.7032684E1,0E0,7.4124146E-1,0E0,0E0,0E0,4.3424082E-1,0E0,0E0,0E0,0E0,0E0,0E0,0E0,0E0],"parents":[2147483647,0,0,1,1,2,2,3,3,4,4,5,5,6,6,8,8,9,9,11,11,12,12,14,14,17,17,18,18,20,20,24,24],"right_children":[2,4,6,8,10,12,14,-1,16,18,-1,20,22,-1,24,-1,-1,26,28,-1,30,-1,-1,-1,32,-1,-1,-1,-1,-1,-1,-1,-1],"split_conditions":[8.125E1,4.1E1,5E0,1.479E0,6E0,1.1025E2,4.93E2,-4.3307707E-2,4.975E1,3.395E0,-2.3317086E-2,4.2227607E0,1E0,-0E0,4.320171E0,-2.664848E-2,-0E0,1.052E3,5.006E0,2.2240896E-3,8.175E1,5.6382786E-2,-0E0,-0E0,9.5E1,-1.1041072E-2,-0E0,2.3514722E-3,1.8481594E-2,-0E0,3.340906E-2,9.069261E-3,-0E0],"split_indices":[9,8,0,5,0,9,3,0,9,5,0,4,2,0,4,0,0,3,5,0,9,0,0,0,8,0,0,0,0,0,0,0,0],"split_type":[0,0,0,0,0,0,0,0,0,0,0,0,0,0,0,0,0,0,0,0,0,0,0,0,0,0,0,0,0,0,0,0,0],"sum_hessian":[2.267E3,1.621E3,6.46E2,5.74E2,1.047E3,5.78E2,6.8E1,2.31E2,3.43E2,9.04E2,1.43E2,4.01E2,1.77E2,8E0,6E1,3.22E2,2.1E1,3.17E2,5.87E2,2.6E1,3.75E2,1.66E2,1.1E1,6E0,5.4E1,3.05E2,1.2E1,5.15E2,7.2E1,5E0,3.7E2,4.3E1,1.1E1],"tree_param":{"num_deleted":"0","num_feature":"10","num_nodes":"33","size_leaf_vector":"1"}},{"base_weights":[6.2260735E-3,-5.9849685E-1,9.1459394E-1,-9.551567E-1,-1.24435365E-1,3.8729072E-1,1.5059966E0,-3.8733214E-2,-6.7293006E-1,-2.5674248E-1,-0E0,4.9638993E-1,-9.7272515E-1,-0E0,1.5183499E0,-6.798521E-1,-0E0,-2.7351803E-1,-0E0,2.8224245E-2,-1.5284136E-1,-0E0,5.479525E-1,-3.791554E-2,-0E0,4.611301E-2,-0E0,-2.053612E-2,-0E0,-8.862694E-3,-0E0,-0E0,4.876345E-3,-5.918036E-3,-0E0,1.0950484E-3,2.0018764E-2],"categories":[],"categories_nodes":[],"categories_segments":[],"categories_sizes":[],"default_left":[0,0,0,0,0,0,0,0,0,0,0,0,0,0,0,0,0,0,0,0,0,0,0,0,0,0,0,0,0,0,0,0,0,0,0,0,0],"id":23,"left_children":[1,3,5,7,9,11,13,-1,15,17,19,21,23,-1,25,27,-1,29,-1,31,33,-1,35,-1,-1,-1,-1,-1,-1,-1,-1,-1,-1,-1,-1,-1,-1],"loss_changes":[1.2462323E3,2.1660995E2,2.5932855E2,4.3540466E1,8.379162E0,7.484701E1,4.052429E0,0E0,1.4312744E0,1.7943687E0,2.2909806E0,1.5939171E1,7.762394E0,0E0,2.3400269E0,2.027893E-2,0E0,1.8563671E0,0E0,1.9017681E0,9.9517155E-1,0E0,2.0001755E1,0E0,0E0,0E0,0E0,0E0,0E0,0E0,0E0,0E0,0E0,0E0,0E0,0E0,0E0],"parents":[2147483647,0,0,1,1,2,2,3,3,4,4,5,5,6,6,8,8,9,9,10,10,11,11,12,12,14,14,15,15,17,17,19,19,20,20,22,22],"right_children":[2,4,6,8,10,12,14,-1,16,18,20,22,24,-1,26,28,-1,30,-1,32,34,-1,36,-1,-1,-1,-1,-1,-1,-1,-1,-1,-1,-1,-1,-1,-1],"split_conditions":[4.26E0,2.905E0,5.839E0,1.785E0,3.468E0,6E0,3.6595473E0,-3.8733214E-2,5.7E1,5.0885897E0,5E0,1.8E2,4.66E2,-0E0,5E0,1.132E3,-0E0,1.052E3,-0E0,4.636485E0,7.610526E1,-0E0,4.2227607E0,-3.791554E-2,-0E0,4.611301E-2,-0E0,-2.053612E-2,-0E0,-8.862694E-3,-0E0,-0E0,4.876345E-3,-5.918036E-3,-0E0,1.0950484E-3,2.0018764E-2],"split_indices":[5,5,5,5,5,0,4,0,8,4,0,3,3,0,0,3,0,3,0,4,8,0,4,0,0,0,0,0,0,0,0,0,0,0,0,0,0],"split_type":[0,0,0,0,0,0,0,0,0,0,0,0,0,0,0,0,0,0,0,0,0,0,0,0,0,0,0,0,0,0,0,0,0,0,0,0,0],"sum_hessian":[2.243E3,1.342E3,9.01E2,7.48E2,5.94E2,4.94E2,4.07E2,3.09E2,4.39E2,2.59E2,3.35E2,4.7E2,2.4E1,5E0,4.02E2,4.33E2,6E0,2.51E2,8E0,2.56E2,7.9E1,3.3E1,4.37E2,1.5E1,9E0,3.93E2,9E0,4.27E2,6E0,2.35E2,1.6E1,1.86E2,7E1,6.9E1,1E1,1.01E2,3.36E2],"tree_param":{"num_deleted":"0","num_feature":"10","num_nodes":"37","size_leaf_vector":"1"}},{"base_weights":[-0E0,-6.2413085E-1,8.8820034E-1,-1.0376725E0,-2.2107643E-1,3.44727E-1,1.327188E0,-1.2163284E0,-2.2133866E-2,-1.3009341E-1,-6.692294E-1,4.1596842E-1,-2.545922E-2,4.0897686E-2,-0E0,-7.6142424E-1,-4.421316E-2,-2.363425E-1,1.1019004E-2,-0E0,-2.0630479E-2,-0E0,4.8560363E-1,1.8216425E-3,-0E0,-0E0,-2.3700722E-2,-8.447429E-3,-0E0,3.7804123E-3,-9.403553E-4,-0E0,1.5653387E-2],"categories":[],"categories_nodes":[],"categories_segments":[],"categories_sizes":[],"default_left":[0,0,0,0,0,0,0,0,0,0,0,0,0,0,0,0,0,0,0,0,0,0,0,0,0,0,0,0,0,0,0,0,0],"id":24,"left_children":[1,3,5,7,9,11,13,15,-1,17,19,21,-1,-1,23,25,-1,27,29,-1,-1,-1,31,-1,-1,-1,-1,-1,-1,-1,-1,-1,-1],"loss_changes":[1.2482092E3,2.0696924E2,1.9939044E2,5.8797607E0,1.9637386E1,3.6355865E1,1.4873291E1,9.289429E0,0E0,1.1455035E1,6.429291E-2,1.4545395E1,0E0,0E0,8.480308E-2,5.444641E-1,0E0,6.9176655E0,2.1164095E0,0E0,0E0,0E0,7.404297E0,0E0,0E0,0E0,0E0,0E0,0E0,0E0,0E0,0E0,0E0],"parents":[2147483647,0,0,1,1,2,2,3,3,4,4,5,5,6,6,7,7,9,9,10,10,11,11,14,14,15,15,17,17,18,18,22,22],"right_children":[2,4,6,8,10,12,14,16,-1,18,20,22,-1,-1,24,26,-1,28,30,-1,-1,-1,32,-1,-1,-1,-1,-1,-1,-1,-1,-1,-1],"split_conditions":[4.1125426E0,2.677E0,5.3315E0,4.38E2,6E0,6E0,5E0,5E0,-2.2133866E-2,3.6575E0,2.74425E0,2.03E2,-2.545922E-2,4.0897686E-2,9.098355E1,2E0,-4.421316E-2,4.077E0,6.575E1,-0E0,-2.0630479E-2,-0E0,3.556E0,1.8216425E-3,-0E0,-0E0,-2.3700722E-2,-8.447429E-3,-0E0,3.7804123E-3,-9.403553E-4,-0E0,1.5653387E-2],"split_indices":[6,6,6,3,0,0,0,0,0,6,6,3,0,0,9,1,0,5,9,0,0,0,5,0,0,0,0,0,0,0,0,0,0],"split_type":[0,0,0,0,0,0,0,0,0,0,0,0,0,0,0,0,0,0,0,0,0,0,0,0,0,0,0,0,0,0,0,0,0],"sum_hessian":[2.236E3,1.321E3,9.15E2,6.32E2,6.89E2,4.27E2,4.88E2,3.56E2,2.76E2,6.02E2,8.7E1,4.17E2,1E1,4.7E2,1.8E1,1.57E2,1.99E2,3.8E2,2.22E2,5E0,8.2E1,5.2E1,3.65E2,1.3E1,5E0,1.1E1,1.46E2,3.52E2,2.8E1,1.18E2,1.04E2,2.3E1,3.42E2],"tree_param":{"num_deleted":"0","num_feature":"10","num_nodes":"33","size_leaf_vector":"1"}},{"base_weights":[-1.0646672E-2,-5.7585335E-1,8.9790404E-1,-9.890309E-1,-1.9304441E-1,3.217437E-1,1.2749507E0,-4.064534E-2,-7.899812E-1,-1.0428846E-1,-6.9809514E-1,3.9348942E-1,-2.2090841E-2,5.253243E-1,1.3986787E0,-8.1749123E-1,-1.7048538E-3,-2.2454712E-1,7.27001E-2,-2.1642622E-2,-0E0,-0E0,4.4658318E-1,-0E0,5.745395E-1,1.4426302E0,9.969781E-2,-2.4704108E-2,-0E0,-8.86627E-3,-0E0,-0E0,4.83398E-3,-0E0,1.3898355E-2,-0E0,1.8353308E-2,3.279117E-2,5.4280218E-2,-0E0,6.6161165E-3],"categories":[],"categories_nodes":[],"categories_segments":[],"categories_sizes":[],"default_left":[0,0,0,0,0,0,0,0,0,0,0,0,0,0,0,0,0,0,0,0,0,0,0,0,0,0,0,0,0,0,0,0,0,0,0,0,0,0,0,0,0],"id":25,"left_children":[1,3,5,7,9,11,13,-1,15,17,19,21,-1,23,25,27,-1,29,31,-1,-1,-1,33,-1,35,37,39,-1,-1,-1,-1,-1,-1,-1,-1,-1,-1,-1,-1,-1,-1],"loss_changes":[1.1707191E3,2.102359E2,1.689292E2,1.6343628E1,2.5316084E1,2.740532E1,2.0900208E1,0E0,3.3221436E-1,1.6048689E1,2.2865295E-2,1.1868778E1,0E0,3.102335E0,7.2313232E0,9.46167E-1,0E0,6.826708E0,3.1862564E0,0E0,0E0,0E0,3.0032883E0,0E0,2.2369556E0,2.4788818E0,6.546643E-1,0E0,0E0,0E0,0E0,0E0,0E0,0E0,0E0,0E0,0E0,0E0,0E0,0E0,0E0],"parents":[2147483647,0,0,1,1,2,2,3,3,4,4,5,5,6,6,8,8,9,9,10,10,11,11,13,13,14,14,15,15,17,17,18,18,22,22,24,24,25,25,26,26],"right_children":[2,4,6,8,10,12,14,-1,16,18,20,22,-1,24,26,28,-1,30,32,-1,-1,-1,34,-1,36,38,40,-1,-1,-1,-1,-1,-1,-1,-1,-1,-1,-1,-1,-1,-1],"split_conditions":[4.248E0,2.677E0,5.3315E0,1.339E0,6E0,6E0,4.320171E0,-4.064534E-2,2.949E0,6.4E1,7.025E1,7.4E1,-2.2090841E-2,4.43E2,1E0,5.5E1,-1.7048538E-3,3.6575E0,1.8E2,-2.1642622E-2,-0E0,-0E0,6.75E1,-0E0,4.631E0,6.665E0,4.7861443E0,-2.4704108E-2,-0E0,-8.86627E-3,-0E0,-0E0,4.83398E-3,-0E0,1.3898355E-2,-0E0,1.8353308E-2,3.279117E-2,5.4280218E-2,-0E0,6.6161165E-3],"split_indices":[6,6,6,5,0,0,4,0,5,8,9,3,0,3,2,8,0,6,3,0,0,0,9,0,5,6,4,0,0,0,0,0,0,0,0,0,0,0,0,0,0],"split_type":[0,0,0,0,0,0,0,0,0,0,0,0,0,0,0,0,0,0,0,0,0,0,0,0,0,0,0,0,0,0,0,0,0,0,0,0,0,0,0,0,0],"sum_hessian":[2.266E3,1.406E3,8.6E2,6.56E2,7.5E2,3.58E2,5.02E2,1.93E2,4.63E2,6.65E2,8.5E1,3.5E2,8E0,9E1,4.12E2,4.32E2,3.1E1,4.28E2,2.37E2,7.9E1,6E0,2.1E1,3.29E2,7E0,8.3E1,3.9E2,2.2E1,4.27E2,5E0,3.21E2,1.07E2,7.4E1,1.63E2,1E1,3.19E2,5E0,7.8E1,2.34E2,1.56E2,1.2E1,1E1],"tree_param":{"num_deleted":"0","num_feature":"10","num_nodes":"41","size_leaf_vector":"1"}},{"base_weights":[3.3657416E-3,-4.3670672E-1,1.1568223E0,-8.683711E-1,-1.2591404E-3,7.640994E-1,4.570924E-2,-3.45652E-2,-6.3886225E-1,-7.57132E-2,4.3032962E-1,7.8963697E-1,-0E0,-6.4471525E-1,-0E0,-2.4848695E-1,-0E0,-0E0,5.0117034E-1,2.860591E-1,2.6972288E-2,-1.9578915E-2,-0E0,-0E0,-9.1536725E-3,7.33294E-4,-5.0658397E-3,-0E0,1.669869E-2,1.0057059E-2,-0E0],"categories":[],"categories_nodes":[],"categories_segments":[],"categories_sizes":[],"default_left":[0,0,0,0,0,0,0,0,0,0,0,0,0,0,0,0,0,0,0,0,0,0,0,0,0,0,0,0,0,0,0],"id":26,"left_children":[1,3,5,7,9,11,-1,-1,13,15,17,19,-1,21,-1,23,25,-1,27,29,-1,-1,-1,-1,-1,-1,-1,-1,-1,-1,-1],"loss_changes":[1.1518252E3,2.9692755E2,5.609308E1,2.7162598E1,2.3482618E1,5.8893585E0,0E0,0E0,1.5804291E0,1.0223664E1,3.095192E0,3.4878998E0,0E0,6.903229E-1,0E0,2.4025393E0,1.8199761E0,0E0,2.7418842E0,1.7077641E0,0E0,0E0,0E0,0E0,0E0,0E0,0E0,0E0,0E0,0E0,0E0],"parents":[2147483647,0,0,1,1,2,2,3,3,4,4,5,5,8,8,9,9,10,10,11,11,13,13,15,15,16,16,18,18,19,19],"right_children":[2,4,6,8,10,12,-1,-1,14,16,18,20,-1,22,-1,24,26,-1,28,30,-1,-1,-1,-1,-1,-1,-1,-1,-1,-1,-1],"split_conditions":[4.909E0,3.04E0,6.395E0,1.821E0,4.902E0,1E0,4.570924E-2,-3.45652E-2,5.925E1,3.378E0,4.02075E0,4.320171E0,-0E0,3.814E0,-0E0,2.7112691E0,4.783E0,-0E0,4.9635E0,1.045E2,2.6972288E-2,-1.9578915E-2,-0E0,-0E0,-9.1536725E-3,7.33294E-4,-5.0658397E-3,-0E0,1.669869E-2,1.0057059E-2,-0E0],"split_indices":[6,6,5,5,5,2,0,0,9,5,6,4,0,5,0,4,5,0,5,9,0,0,0,0,0,0,0,0,0,0,0],"split_type":[0,0,0,0,0,0,0,0,0,0,0,0,0,0,0,0,0,0,0,0,0,0,0,0,0,0,0,0,0,0,0],"sum_hessian":[2.235E3,1.616E3,6.19E2,7.95E2,8.21E2,3.27E2,2.92E2,3.18E2,4.77E2,7.27E2,9.4E1,3.15E2,1.2E1,4.72E2,5E0,2.24E2,5.03E2,1.5E1,7.9E1,7.9E1,2.36E2,4.62E2,1E1,5.3E1,1.71E2,4.59E2,4.4E1,8E0,7.1E1,7E1,9E0],"tree_param":{"num_deleted":"0","num_feature":"10","num_nodes":"31","size_leaf_vector":"1"}},{"base_weights":[4.941943E-3,-4.2989177E-1,1.0955571E0,-8.531383E-1,-9.758765E-3,7.108265E-1,1.4711081E0,-3.602339E-2,-6.157814E-1,4.827584E-2,-7.2473717E-1,8.2507634E-1,3.3333674E-2,-0E0,4.5206048E-2,-2.0270364E-2,-1.2781855E-1,-1.0494629E-1,2.9707927E-1,-3.8731597E-2,-1.2409059E-1,8.6685246E-1,-0E0,-0E0,1.6734725E-1,-0E0,-5.512837E-3,-7.5979405E-3,-0E0,-0E0,1.2678601E-2,-0E0,-4.2553777E-3,2.6289893E-2,-0E0,-0E0,5.694923E-3],"categories":[],"categories_nodes":[],"categories_segments":[],"categories_sizes":[],"default_left":[0,0,0,0,0,0,0,0,0,0,0,0,0,0,0,0,0,0,0,0,0,0,0,0,0,0,0,0,0,0,0,0,0,0,0,0,0],"id":27,"left_children":[1,3,5,7,9,11,13,-1,15,17,19,21,23,-1,-1,-1,25,27,29,-1,31,33,-1,-1,35,-1,-1,-1,-1,-1,-1,-1,-1,-1,-1,-1,-1],"loss_changes":[1.0987902E3,2.829123E2,6.351776E1,4.0864807E1,4.2176487E1,1.9006088E1,3.8137817E0,0E0,6.1828766E0,3.1892168E1,1.0438484E1,9.579773E0,1.8210121E0,0E0,0E0,0E0,1.0099404E0,6.948517E0,9.448463E0,0E0,1.685409E-1,7.86026E-1,0E0,0E0,3.6590314E-1,0E0,0E0,0E0,0E0,0E0,0E0,0E0,0E0,0E0,0E0,0E0,0E0],"parents":[2147483647,0,0,1,1,2,2,3,3,4,4,5,5,6,6,8,8,9,9,10,10,11,11,12,12,16,16,17,17,18,18,20,20,21,21,24,24],"right_children":[2,4,6,8,10,12,14,-1,16,18,20,22,24,-1,-1,-1,26,28,30,-1,32,34,-1,-1,36,-1,-1,-1,-1,-1,-1,-1,-1,-1,-1,-1,-1],"split_conditions":[8.175E1,2.905E0,6.395E0,1.612E0,6E0,5E0,4.58E2,-3.602339E-2,5.45E1,6.89589E1,5.41E2,1E0,4.93E2,-0E0,4.5206048E-2,-2.0270364E-2,4.2E1,3.395E0,3.16E2,-3.8731597E-2,5.6E1,1.09E2,-0E0,-0E0,4.053E0,-0E0,-5.512837E-3,-7.5979405E-3,-0E0,-0E0,1.2678601E-2,-0E0,-4.2553777E-3,2.6289893E-2,-0E0,-0E0,5.694923E-3],"split_indices":[9,5,5,5,0,0,3,0,9,8,3,2,3,0,0,0,8,5,3,0,8,8,0,0,5,0,0,0,0,0,0,0,0,0,0,0,0],"split_type":[0,0,0,0,0,0,0,0,0,0,0,0,0,0,0,0,0,0,0,0,0,0,0,0,0,0,0,0,0,0,0,0,0,0,0,0,0],"sum_hessian":[2.283E3,1.63E3,6.53E2,7.95E2,8.35E2,3.5E2,3.03E2,2.89E2,5.06E2,7.68E2,6.7E1,2.85E2,6.5E1,1.3E1,2.9E2,4.29E2,7.7E1,4.54E2,3.14E2,2E1,4.7E1,2.7E2,1.5E1,7E0,5.8E1,1.5E1,6.2E1,1.78E2,2.76E2,1.11E2,2.03E2,5E0,4.2E1,2.65E2,5E0,5E0,5.3E1],"tree_param":{"num_deleted":"0","num_feature":"10","num_nodes":"37","size_leaf_vector":"1"}},{"base_weights":[-1.3500939E-2,-5.591199E-1,7.776283E-1,-9.6834034E-1,-2.4432297E-1,2.655937E-1,1.1695929E0,-1.2885393E0,-2.3634227E-2,-1.4914516E-1,-2.1535963E-2,3.3701676E-1,-2.4834137E-2,1.2003012E0,-0E0,-3.944304E-2,-0E0,-3.5644466E-1,-3.7205953E-2,-0E0,4.348125E-1,2.822711E-2,4.5960236E-2,-1.1835432E-2,-0E0,-2.3502456E-3,4.3843174E-3,-2.4738849E-5,3.251188E-4,-0E0,1.3825663E-2],"categories":[],"categories_nodes":[],"categories_segments":[],"categories_sizes":[],"default_left":[0,0,0,0,0,0,0,0,0,0,0,0,0,0,0,0,0,0,0,0,0,0,0,0,0,0,0,0,0,0,0],"id":28,"left_children":[1,3,5,7,9,11,13,15,-1,17,-1,19,-1,21,-1,-1,-1,23,25,27,29,-1,-1,-1,-1,-1,-1,-1,-1,-1,-1],"loss_changes":[9.690701E2,1.5799927E2,1.653789E2,1.7459717E0,2.5594692E1,3.0603283E1,1.2041077E1,1.0995483E0,0E0,1.1779848E1,0E0,1.3100151E1,0E0,2.5873413E0,0E0,0E0,0E0,1.8712063E0,3.1019769E0,9.769176E-3,5.0113754E0,0E0,0E0,0E0,0E0,0E0,0E0,0E0,0E0,0E0,0E0],"parents":[2147483647,0,0,1,1,2,2,3,3,4,4,5,5,6,6,7,7,9,9,11,11,13,13,17,17,18,18,19,19,20,20],"right_children":[2,4,6,8,10,12,14,16,-1,18,-1,20,-1,22,-1,-1,-1,24,26,28,30,-1,-1,-1,-1,-1,-1,-1,-1,-1,-1],"split_conditions":[4.1125426E0,2.47025E0,5.3315E0,1.33025E0,6E0,6E0,5E0,5.2E2,-2.3634227E-2,3.0905E0,-2.1535963E-2,3.25E2,-2.4834137E-2,1.1025E2,-0E0,-3.944304E-2,-0E0,1.01E3,1.06E3,6.1E1,5.7E1,2.822711E-2,4.5960236E-2,-1.1835432E-2,-0E0,-2.3502456E-3,4.3843174E-3,-2.4738849E-5,3.251188E-4,-0E0,1.3825663E-2],"split_indices":[6,6,6,6,0,0,0,3,0,6,0,3,0,9,0,0,0,3,3,3,8,0,0,0,0,0,0,0,0,0,0],"split_type":[0,0,0,0,0,0,0,0,0,0,0,0,0,0,0,0,0,0,0,0,0,0,0,0,0,0,0,0,0,0,0],"sum_hessian":[2.23E3,1.329E3,9.01E2,5.55E2,7.74E2,4.09E2,4.92E2,1.58E2,3.97E2,6.73E2,1.01E2,3.99E2,1E1,4.75E2,1.7E1,1.52E2,6E0,1.97E2,4.76E2,9.4E1,3.05E2,3.05E2,1.7E2,1.71E2,2.6E1,4.38E2,3.8E1,2.1E1,7.3E1,1.1E1,2.94E2],"tree_param":{"num_deleted":"0","num_feature":"10","num_nodes":"31","size_leaf_vector":"1"}},{"base_weights":[-1.591543E-3,-4.05661E-1,1.0367135E0,-7.911741E-1,-2.9419139E-2,8.078663E-1,4.5097794E-2,-3.5382442E-2,-6.161121E-1,3.4498375E-2,-9.2036253E-1,-0E0,8.463199E-1,-1.9891348E-2,-1.7703448E-1,-0E0,4.7775465E-1,-4.1851692E-2,-2.4751048E-1,3.1299004E-1,9.4680923E-1,-5.8639147E-3,-0E0,-2.8243212E-3,1.7629409E-3,-0E0,1.577751E-2,-9.14055E-3,-0E0,1.0236053E-2,-0E0,-0E0,2.9181296E-2],"categories":[],"categories_nodes":[],"categories_segments":[],"categories_sizes":[],"default_left":[0,0,0,0,0,0,0,0,0,0,0,0,0,0,0,0,0,0,0,0,0,0,0,0,0,0,0,0,0,0,0,0,0],"id":29,"left_children":[1,3,5,7,9,11,-1,-1,13,15,17,-1,19,-1,21,23,25,-1,27,29,31,-1,-1,-1,-1,-1,-1,-1,-1,-1,-1,-1,-1],"loss_changes":[9.46072E2,2.2958206E2,3.1901367E1,2.8947266E1,5.7808792E1,1.4091675E1,0E0,0E0,2.542389E0,1.6627863E1,1.840538E0,0E0,7.8591614E0,0E0,2.0443869E-1,4.4183655E0,2.062582E0,0E0,8.0434036E-1,2.1572685E-1,2.2076416E-1,0E0,0E0,0E0,0E0,0E0,0E0,0E0,0E0,0E0,0E0,0E0,0E0],"parents":[2147483647,0,0,1,1,2,2,3,3,4,4,5,5,8,8,9,9,10,10,12,12,14,14,15,15,16,16,18,18,19,19,20,20],"right_children":[2,4,6,8,10,12,-1,-1,14,16,18,-1,20,-1,22,24,26,-1,28,30,32,-1,-1,-1,-1,-1,-1,-1,-1,-1,-1,-1,-1],"split_conditions":[4.882E0,3.0605E0,1.1025E2,1.438E0,6E0,3.2E2,4.5097794E-2,-3.5382442E-2,3.019E0,5.006E0,5.29E2,-0E0,4.320171E0,-1.9891348E-2,9.31E2,3.7895E0,2.17E2,-4.1851692E-2,4.418E0,4.319782E0,3.89E2,-5.8639147E-3,-0E0,-2.8243212E-3,1.7629409E-3,-0E0,1.577751E-2,-9.14055E-3,-0E0,1.0236053E-2,-0E0,-0E0,2.9181296E-2],"split_indices":[6,6,9,5,0,3,0,0,5,5,3,0,4,0,3,6,3,0,5,4,3,0,0,0,0,0,0,0,0,0,0,0,0],"split_type":[0,0,0,0,0,0,0,0,0,0,0,0,0,0,0,0,0,0,0,0,0,0,0,0,0,0,0,0,0,0,0,0,0],"sum_hessian":[2.25E3,1.631E3,6.19E2,7.87E2,8.44E2,4.48E2,1.71E2,2.09E2,5.78E2,7.86E2,5.8E1,2.1E1,4.27E2,4.97E2,8.1E1,7.19E2,6.7E1,1.9E1,3.9E1,9E1,3.37E2,7E1,1.1E1,3.35E2,3.84E2,6E0,6.1E1,3.1E1,8E0,7.6E1,1.4E1,1.8E1,3.19E2],"tree_param":{"num_deleted":"0","num_feature":"10","num_nodes":"33","size_leaf_vector":"1"}},{"base_weights":[-8.975274E-3,-4.061951E-1,9.694838E-1,-8.321319E-1,-6.0460642E-2,5.669429E-1,1.2949289E0,-5.9564507E-1,-1.1128324E0,2.6486197E-2,-7.1616745E-1,6.912539E-1,-0E0,3.248417E-3,1.3571953E0,-0E0,-6.250517E-1,-3.9265934E-2,-6.1390585E-1,-1.0834931E-1,1.961202E-1,-4.2725198E-2,-3.2894114E-1,7.453065E-1,-0E0,-5.9007127E-3,1.357898E-1,3.5429597E-3,-0E0,-0E0,4.113057E-2,-1.9233795E-2,-0E0,-0E0,-1.9190928E-2,-5.768906E-3,-0E0,-0E0,1.0733333E-2,-1.0302494E-2,-0E0,-0E0,2.4072947E-2,-0E0,8.048672E-3],"categories":[],"categories_nodes":[],"categories_segments":[],"categories_sizes":[],"default_left":[0,0,0,0,0,0,0,0,0,0,0,0,0,0,0,0,0,0,0,0,0,0,0,0,0,0,0,0,0,0,0,0,0,0,0,0,0,0,0,0,0,0,0,0,0],"id":30,"left_children":[1,3,5,7,9,11,13,15,17,19,21,23,25,27,29,-1,31,-1,33,35,37,-1,39,41,-1,-1,43,-1,-1,-1,-1,-1,-1,-1,-1,-1,-1,-1,-1,-1,-1,-1,-1,-1,-1],"loss_changes":[8.8173694E2,2.3075375E2,5.9455017E1,2.3882568E1,5.976525E1,1.8504951E1,1.3616638E1,8.403122E0,1.7853699E0,1.9662825E1,1.1231499E1,1.3212563E1,1.9484019E0,3.622814E-1,2.519287E0,0E0,2.2200165E0,0E0,1.3276482E0,4.132529E0,1.2673677E1,0E0,2.75383E-1,7.4074554E0,0E0,0E0,1.9483359E0,0E0,0E0,0E0,0E0,0E0,0E0,0E0,0E0,0E0,0E0,0E0,0E0,0E0,0E0,0E0,0E0,0E0,0E0],"parents":[2147483647,0,0,1,1,2,2,3,3,4,4,5,5,6,6,7,7,8,8,9,9,10,10,11,11,12,12,13,13,14,14,16,16,18,18,19,19,20,20,22,22,23,23,26,26],"right_children":[2,4,6,8,10,12,14,16,18,20,22,24,26,28,30,-1,32,-1,34,36,38,-1,40,42,-1,-1,44,-1,-1,-1,-1,-1,-1,-1,-1,-1,-1,-1,-1,-1,-1,-1,-1,-1,-1],"split_conditions":[8.125E1,4.7E1,6.161E0,6E0,6E0,5E0,4.58E2,2E0,5.41E2,3.842E0,4.66E2,1E0,4.93E2,4.03E2,4.2227607E0,-0E0,1.052E3,-3.9265934E-2,5.72E2,3.395E0,4.4127827E0,-4.2725198E-2,4.26E0,8.3E1,-0E0,-5.9007127E-3,4.7593513E0,3.5429597E-3,-0E0,-0E0,4.113057E-2,-1.9233795E-2,-0E0,-0E0,-1.9190928E-2,-5.768906E-3,-0E0,-0E0,1.0733333E-2,-1.0302494E-2,-0E0,-0E0,2.4072947E-2,-0E0,8.048672E-3],"split_indices":[9,9,5,0,0,0,3,1,3,5,3,2,3,3,4,0,3,0,3,5,4,0,5,9,0,0,4,0,0,0,0,0,0,0,0,0,0,0,0,0,0,0,0,0,0],"split_type":[0,0,0,0,0,0,0,0,0,0,0,0,0,0,0,0,0,0,0,0,0,0,0,0,0,0,0,0,0,0,0,0,0,0,0,0,0,0,0,0,0,0,0,0,0],"sum_hessian":[2.263E3,1.621E3,6.42E2,7.07E2,9.14E2,3.13E2,3.29E2,4.2E2,2.87E2,8.02E2,1.12E2,2.46E2,6.7E1,2.3E1,3.06E2,1.8E1,4.02E2,1.8E2,1.07E2,4.16E2,3.86E2,2.1E1,9.1E1,2.34E2,1.2E1,7E0,6E1,1.6E1,7E0,5E0,3.01E2,3.87E2,1.5E1,6E0,1.01E2,2.37E2,1.79E2,1.78E2,2.08E2,8.5E1,6E0,2.2E1,2.12E2,2.5E1,3.5E1],"tree_param":{"num_deleted":"0","num_feature":"10","num_nodes":"45","size_leaf_vector":"1"}},{"base_weights":[-9.055234E-3,-5.112457E-1,7.133966E-1,-2.6527528E-2,-2.2178067E-1,2.6707125E-1,1.0861982E0,-3.565326E-1,-4.2228565E-2,-2.9720953E-1,3.7617806E-1,-0E0,1.100637E0,-1.1596901E-2,-0E0,-1.346689E-1,-0E0,-0E0,-1.3479274E-2,1.8861974E-2,5.0121975E-1,-0E0,1.1095994E0,-1.9795966E-4,-8.954972E-3,-1.4356626E-3,2.0743147E-3,-9.10457E-4,5.2536232E-3,1.5880795E-2,-0E0,1.019038E-2,3.4989327E-2],"categories":[],"categories_nodes":[],"categories_segments":[],"categories_sizes":[],"default_left":[0,0,0,0,0,0,0,0,0,0,0,0,0,0,0,0,0,0,0,0,0,0,0,0,0,0,0,0,0,0,0,0,0],"id":31,"left_children":[1,3,5,-1,7,9,11,13,15,17,19,-1,21,-1,-1,23,25,-1,-1,27,29,-1,31,-1,-1,-1,-1,-1,-1,-1,-1,-1,-1],"loss_changes":[8.226612E2,1.3263278E2,1.3731152E2,0E0,1.4927483E1,2.9366545E1,9.351685E0,5.121601E0,2.7300954E0,3.3176532E0,1.2263653E1,0E0,3.4116821E0,0E0,0E0,8.7389874E-1,9.0126085E-1,0E0,0E0,2.5235832E0,4.1872787E0,0E0,1.8494873E0,0E0,0E0,0E0,0E0,0E0,0E0,0E0,0E0,0E0,0E0],"parents":[2147483647,0,0,1,1,2,2,4,4,5,5,6,6,7,7,8,8,9,9,10,10,12,12,15,15,16,16,19,19,20,20,22,22],"right_children":[2,4,6,-1,8,10,12,14,16,18,20,-1,22,-1,-1,24,26,-1,-1,28,30,-1,32,-1,-1,-1,-1,-1,-1,-1,-1,-1,-1],"split_conditions":[4.1125426E0,2.47025E0,5.334E0,-2.6527528E-2,3.378E0,1.99E2,2.25E2,3.7895E0,4.58E2,4.308E0,4.319782E0,-0E0,2.6192207E0,-1.1596901E-2,-0E0,5E0,3.1845E0,-0E0,-1.3479274E-2,4.26E0,5.26E0,-0E0,4.43E2,-1.9795966E-4,-8.954972E-3,-1.4356626E-3,2.0743147E-3,-9.10457E-4,5.2536232E-3,1.5880795E-2,-0E0,1.019038E-2,3.4989327E-2],"split_indices":[6,6,5,0,5,3,3,6,3,6,4,0,4,0,0,0,6,0,0,5,5,0,3,0,0,0,0,0,0,0,0,0,0],"split_type":[0,0,0,0,0,0,0,0,0,0,0,0,0,0,0,0,0,0,0,0,0,0,0,0,0,0,0,0,0,0,0,0,0],"sum_hessian":[2.253E3,1.339E3,9.14E2,5.61E2,7.78E2,4.36E2,4.78E2,4.07E2,3.71E2,5.3E1,3.83E2,5E0,4.73E2,3.79E2,2.8E1,1.78E2,1.93E2,1.9E1,3.4E1,1.23E2,2.6E2,5E0,4.68E2,1.4E2,3.8E1,3.7E1,1.56E2,5.1E1,7.2E1,2.47E2,1.3E1,4.9E1,4.19E2],"tree_param":{"num_deleted":"0","num_feature":"10","num_nodes":"33","size_leaf_vector":"1"}},{"base_weights":[-0E0,-4.545262E-1,7.9171896E-1,-7.718612E-1,-1.22482665E-1,4.0428776E-1,1.162529E0,-3.369551E-2,-6.110462E-1,-3.8131632E-2,-6.40425E-1,-2.2648908E-1,5.020487E-1,3.534103E-2,-0E0,-1.848275E-2,-0E0,-1.7675471E-1,2.3162154E-2,-3.343644E-2,-2.2402722E-1,-0E0,-4.205849E-1,5.2279174E-1,-0E0,-5.8727264E-3,-0E0,-1.0590375E-3,2.9837436E-3,-7.871502E-3,-0E0,-0E0,-1.5580031E-2,1.80043E-2,2.119025E-3],"categories":[],"categories_nodes":[],"categories_segments":[],"categories_sizes":[],"default_left":[0,0,0,0,0,0,0,0,0,0,0,0,0,0,0,0,0,0,0,0,0,0,0,0,0,0,0,0,0,0,0,0,0,0,0],"id":32,"left_children":[1,3,5,7,9,11,13,-1,15,17,19,21,23,-1,-1,-1,-1,25,27,-1,29,-1,31,33,-1,-1,-1,-1,-1,-1,-1,-1,-1,-1,-1],"loss_changes":[8.129542E2,1.4163187E2,9.786682E1,1.6360046E1,2.4863182E1,3.0470436E1,2.0993042E0,0E0,1.4084167E0,7.142226E0,8.9837646E-1,3.3981535E0,4.1910934E0,0E0,0E0,0E0,0E0,1.2856808E0,2.5188742E0,0E0,6.6771746E-1,0E0,1.5375133E0,5.983986E0,0E0,0E0,0E0,0E0,0E0,0E0,0E0,0E0,0E0,0E0,0E0],"parents":[2147483647,0,0,1,1,2,2,3,3,4,4,5,5,6,6,8,8,9,9,10,10,11,11,12,12,17,17,18,18,20,20,22,22,23,23],"right_children":[2,4,6,8,10,12,14,-1,16,18,20,22,24,-1,-1,-1,-1,26,28,-1,30,-1,32,34,-1,-1,-1,-1,-1,-1,-1,-1,-1,-1,-1],"split_conditions":[4.322704E0,2.8485E0,5.839E0,1.339E0,6E0,2.17E2,5E0,-3.369551E-2,5.75E1,3.378E0,5.41E2,4.631E0,1E0,3.534103E-2,-0E0,-1.848275E-2,-0E0,1.056E3,3.25E2,-3.343644E-2,4.418E0,-0E0,4.56425E0,5E0,-0E0,-5.8727264E-3,-0E0,-1.0590375E-3,2.9837436E-3,-7.871502E-3,-0E0,-0E0,-1.5580031E-2,1.80043E-2,2.119025E-3],"split_indices":[6,6,5,5,0,3,0,0,9,5,3,5,2,0,0,0,0,3,3,0,5,0,6,0,0,0,0,0,0,0,0,0,0,0,0],"split_type":[0,0,0,0,0,0,0,0,0,0,0,0,0,0,0,0,0,0,0,0,0,0,0,0,0,0,0,0,0,0,0,0,0,0,0],"sum_hessian":[2.241E3,1.428E3,8.13E2,7.08E2,7.2E2,4.21E2,3.92E2,1.84E2,5.24E2,6.45E2,7.5E1,4.1E1,3.8E2,3.83E2,9E0,5.19E2,5E0,2.42E2,4.03E2,1.6E1,5.9E1,1.7E1,2.4E1,3.65E2,1.5E1,2.29E2,1.3E1,1.57E2,2.46E2,5E1,9E0,6E0,1.8E1,2.9E2,7.5E1],"tree_param":{"num_deleted":"0","num_feature":"10","num_nodes":"35","size_leaf_vector":"1"}},{"base_weights":[-9.364879E-3,-4.743249E-1,6.825479E-1,-7.9605883E-1,-1.6846944E-1,3.4502056E-1,1.1784358E0,-5.546187E-1,-3.1867735E-2,-6.511566E-2,-5.47391E-1,4.051937E-1,-7.216107E-1,-0E0,1.2401191E0,-5.893724E-1,-0E0,-1.7626913E-1,1.0103929E-1,-0E0,-5.6867665E-1,-0E0,4.5951548E-1,-2.5206286E-2,-0E0,1.280367E-3,-0E0,-0E0,3.766642E-2,-1.8155076E-2,-0E0,-7.0850626E-3,-0E0,-0E0,4.718236E-3,-1.7536163E-2,-0E0,7.03577E-4,1.6603826E-2],"categories":[],"categories_nodes":[],"categories_segments":[],"categories_sizes":[],"default_left":[0,0,0,0,0,0,0,0,0,0,0,0,0,0,0,0,0,0,0,0,0,0,0,0,0,0,0,0,0,0,0,0,0,0,0,0,0,0,0],"id":33,"left_children":[1,3,5,7,9,11,13,15,-1,17,19,21,23,25,27,29,-1,31,33,-1,35,-1,37,-1,-1,-1,-1,-1,-1,-1,-1,-1,-1,-1,-1,-1,-1,-1,-1],"loss_changes":[7.324061E2,1.24220825E2,1.3284409E2,1.9780273E1,2.2224958E1,3.615126E1,1.5603485E1,7.5455856E0,0E0,1.21593685E1,1.2667313E0,1.6215744E1,3.9503956E-1,5.2823164E-2,1.8066406E-2,2.0321808E0,0E0,2.8972597E0,1.7481971E0,0E0,3.0962372E-1,0E0,1.4829918E1,0E0,0E0,0E0,0E0,0E0,0E0,0E0,0E0,0E0,0E0,0E0,0E0,0E0,0E0,0E0,0E0],"parents":[2147483647,0,0,1,1,2,2,3,3,4,4,5,5,6,6,7,7,9,9,10,10,11,11,12,12,13,13,14,14,15,15,17,17,18,18,20,20,22,22],"right_children":[2,4,6,8,10,12,14,16,-1,18,20,22,24,26,28,30,-1,32,34,-1,36,-1,38,-1,-1,-1,-1,-1,-1,-1,-1,-1,-1,-1,-1,-1,-1,-1,-1],"split_conditions":[7.025E1,4.3E1,6.161E0,6E0,6E0,6E0,4.58E2,5.525E1,-3.1867735E-2,3.842E0,2.078E0,1.77E2,2.83E2,4.33E2,4.2227607E0,1.056E3,-0E0,6.92E2,3.16E2,-0E0,1E0,-0E0,4.319782E0,-2.5206286E-2,-0E0,1.280367E-3,-0E0,-0E0,3.766642E-2,-1.8155076E-2,-0E0,-7.0850626E-3,-0E0,-0E0,4.718236E-3,-1.7536163E-2,-0E0,7.03577E-4,1.6603826E-2],"split_indices":[9,8,5,0,0,0,3,9,0,5,5,3,3,3,4,3,0,3,3,0,2,0,4,0,0,0,0,0,0,0,0,0,0,0,0,0,0,0,0],"split_type":[0,0,0,0,0,0,0,0,0,0,0,0,0,0,0,0,0,0,0,0,0,0,0,0,0,0,0,0,0,0,0,0,0,0,0,0,0,0,0],"sum_hessian":[2.263E3,1.364E3,8.99E2,6.41E2,7.23E2,5.57E2,3.42E2,3.72E2,2.69E2,5.98E2,1.25E2,5.42E2,1.5E1,2.4E1,3.18E2,3.5E2,2.2E1,3.94E2,2.04E2,6E0,1.19E2,4.6E1,4.96E2,9E0,6E0,1.9E1,5E0,8E0,3.1E2,3.37E2,1.3E1,2.67E2,1.27E2,5.5E1,1.49E2,1.13E2,6E0,1.09E2,3.87E2],"tree_param":{"num_deleted":"0","num_feature":"10","num_nodes":"39","size_leaf_vector":"1"}},{"base_weights":[-6.65719E-3,-3.682937E-1,8.6871576E-1,-1.5395854E-1,-9.6250665E-1,9.5846E-1,-0E0,-4.83087E-1,6.710283E-2,-4.1651674E-2,-5.5225575E-1,3.5941088E-1,1.0675328E0,-4.0139933E-3,1.4907569E-1,-5.253009E-1,-0E0,-0E0,4.8948297E-1,-5.776194E-1,-0E0,-0E0,4.157229E-1,-0E0,3.256409E-2,-0E0,7.2385105E-3,-1.8134095E-2,-5.0202003E-3,-3.2634777E-3,1.8129181E-3,-0E0,1.6786594E-2,-0E0,-1.7547682E-2,1.3068116E-2,-0E0],"categories":[],"categories_nodes":[],"categories_segments":[],"categories_sizes":[],"default_left":[0,0,0,0,0,0,0,0,0,0,0,0,0,0,0,0,0,0,0,0,0,0,0,0,0,0,0,0,0,0,0,0,0,0,0,0,0],"id":34,"left_children":[1,3,5,7,9,11,13,15,17,-1,19,21,23,-1,25,27,-1,29,31,33,-1,-1,35,-1,-1,-1,-1,-1,-1,-1,-1,-1,-1,-1,-1,-1,-1],"loss_changes":[7.2598236E2,1.9647981E2,4.414984E1,9.404861E1,4.6482666E1,2.0836365E1,1.9402417E0,1.3049843E1,1.7091927E1,0E0,2.9601135E0,4.0717955E0,4.5907593E0,0E0,1.4854476E0,4.929962E0,0E0,4.004798E0,3.4301243E0,2.5061798E-1,0E0,0E0,4.114666E-1,0E0,0E0,0E0,0E0,0E0,0E0,0E0,0E0,0E0,0E0,0E0,0E0,0E0,0E0],"parents":[2147483647,0,0,1,1,2,2,3,3,4,4,5,5,6,6,7,7,8,8,10,10,11,11,12,12,14,14,15,15,17,17,18,18,19,19,22,22],"right_children":[2,4,6,8,10,12,14,16,18,-1,20,22,24,-1,26,28,-1,30,32,34,-1,-1,36,-1,-1,-1,-1,-1,-1,-1,-1,-1,-1,-1,-1,-1,-1],"split_conditions":[8.125E1,6E0,5E0,5.175E1,4.3E2,4.320171E0,4.93E2,3.5689294E0,5.006E0,-4.1651674E-2,7.8E1,3.2E2,2.56E2,-4.0139933E-3,4.7593513E0,6.92E2,-0E0,1.77E2,2.73E2,7.65E-1,-0E0,-0E0,1.047E3,-0E0,3.256409E-2,-0E0,7.2385105E-3,-1.8134095E-2,-5.0202003E-3,-3.2634777E-3,1.8129181E-3,-0E0,1.6786594E-2,-0E0,-1.7547682E-2,1.3068116E-2,-0E0],"split_indices":[9,0,0,9,3,4,3,4,5,0,8,3,3,0,4,3,0,3,3,5,0,0,3,0,0,0,0,0,0,0,0,0,0,0,0,0,0],"split_type":[0,0,0,0,0,0,0,0,0,0,0,0,0,0,0,0,0,0,0,0,0,0,0,0,0,0,0,0,0,0,0,0,0,0,0,0,0],"sum_hessian":[2.289E3,1.632E3,6.57E2,1.221E3,4.11E2,5.86E2,7.1E1,5.04E2,7.17E2,1.78E2,2.33E2,1.11E2,4.75E2,9E0,6.2E1,4.72E2,3.2E1,6.42E2,7.5E1,2.21E2,1.2E1,7E0,1.04E2,1.2E1,4.63E2,1.9E1,4.3E1,3.58E2,1.14E2,1.84E2,4.58E2,9E0,6.6E1,5E0,2.16E2,9.6E1,8E0],"tree_param":{"num_deleted":"0","num_feature":"10","num_nodes":"37","size_leaf_vector":"1"}},{"base_weights":[5.854257E-3,-4.3513379E-1,6.6330916E-1,-2.3918599E-1,-9.016018E-1,7.4617195E-1,-1.0203199E0,-4.277864E-1,-3.053331E-3,-3.6991682E-2,-5.754457E-1,4.7933185E-1,1.1965169E0,-4.0028688E-2,-0E0,-4.9470222E-1,-0E0,-8.925187E-2,1.373095E-1,-5.933226E-1,-0E0,-0E0,5.1827836E-1,-0E0,1.228407E0,-1.73488E-2,-3.7239338E-3,-2.4691964E-3,-0E0,-3.7257415E-3,-0E0,-0E0,1.0457677E-2,-0E0,-1.804207E-2,4.7493163E-3,1.8874608E-2,-0E0,3.7516505E-2],"categories":[],"categories_nodes":[],"categories_segments":[],"categories_sizes":[],"default_left":[0,0,0,0,0,0,0,0,0,0,0,0,0,0,0,0,0,0,0,0,0,0,0,0,0,0,0,0,0,0,0,0,0,0,0,0,0,0,0],"id":35,"left_children":[1,3,5,7,9,11,13,15,17,-1,19,21,23,-1,-1,25,27,29,31,33,-1,-1,35,-1,37,-1,-1,-1,-1,-1,-1,-1,-1,-1,-1,-1,-1,-1,-1],"loss_changes":[6.644683E2,1.105614E2,1.3405829E2,3.9545246E1,1.6223938E1,8.493823E1,1.1465984E1,1.0809769E1,5.340637E0,0E0,1.9266663E0,1.3868408E1,6.0195923E0,0E0,0E0,5.763649E0,5.6904685E-1,1.6559379E0,6.371377E0,3.055954E-1,0E0,0E0,1.3399963E1,0E0,5.520447E0,0E0,0E0,0E0,0E0,0E0,0E0,0E0,0E0,0E0,0E0,0E0,0E0,0E0,0E0],"parents":[2147483647,0,0,1,1,2,2,3,3,4,4,5,5,6,6,7,7,8,8,10,10,11,11,12,12,15,15,16,16,17,17,18,18,19,19,22,22,24,24],"right_children":[2,4,6,8,10,12,14,16,18,-1,20,22,24,-1,-1,26,28,30,32,34,-1,-1,36,-1,38,-1,-1,-1,-1,-1,-1,-1,-1,-1,-1,-1,-1,-1,-1],"split_conditions":[4.26E0,6E0,6E0,3.043E0,4.38E2,6.395E0,4.66E2,3.5689294E0,4.636485E0,-3.6991682E-2,7.1E1,1.8E2,4.43E2,-4.0028688E-2,-0E0,6.92E2,6.44E2,9.4E2,2.03E2,7.65E-1,-0E0,-0E0,4.320171E0,-0E0,1.02E2,-1.73488E-2,-3.7239338E-3,-2.4691964E-3,-0E0,-3.7257415E-3,-0E0,-0E0,1.0457677E-2,-0E0,-1.804207E-2,4.7493163E-3,1.8874608E-2,-0E0,3.7516505E-2],"split_indices":[5,0,0,5,3,5,3,4,4,0,8,3,3,0,0,3,3,3,3,5,0,0,4,0,8,0,0,0,0,0,0,0,0,0,0,0,0,0,0],"split_type":[0,0,0,0,0,0,0,0,0,0,0,0,0,0,0,0,0,0,0,0,0,0,0,0,0,0,0,0,0,0,0,0,0,0,0,0,0,0,0],"sum_hessian":[2.264E3,1.348E3,9.16E2,9.75E2,3.73E2,8.84E2,3.2E1,5.14E2,4.61E2,1.56E2,2.17E2,5.82E2,3.02E2,2.1E1,1.1E1,4.26E2,8.8E1,3.32E2,1.29E2,2.09E2,8E0,3.4E1,5.48E2,1.2E1,2.9E2,3.21E2,1.05E2,7.4E1,1.4E1,2.74E2,5.8E1,6.5E1,6.4E1,5E0,2.04E2,1.56E2,3.92E2,7E0,2.83E2],"tree_param":{"num_deleted":"0","num_feature":"10","num_nodes":"39","size_leaf_vector":"1"}},{"base_weights":[-0E0,-2.815536E-1,9.813502E-1,-5.802188E-1,1.03799514E-1,7.526955E-1,1.4134432E0,-8.8650006E-1,-3.9896774E-1,-1.4557E-1,2.2868425E-1,-0E0,7.770621E-1,4.435187E-2,-0E0,-2.6851062E-2,-0E0,-4.8147488E-1,-1.7769448E-1,-2.1683437E-1,-0E0,-3.5081577E-2,2.8639603E-1,-0E0,2.415161E-2,-1.4853239E-2,-0E0,-0E0,-6.8657706E-3,-1.0934826E-3,-1.0452354E-2,2.3741024E-3,-0E0,-3.347289E-3,-0E0,9.202539E-3,-0E0],"categories":[],"categories_nodes":[],"categories_segments":[],"categories_sizes":[],"default_left":[0,0,0,0,0,0,0,0,0,0,0,0,0,0,0,0,0,0,0,0,0,0,0,0,0,0,0,0,0,0,0,0,0,0,0,0,0],"id":36,"left_children":[1,3,5,7,9,11,13,15,17,19,21,-1,23,-1,-1,-1,-1,25,27,29,31,33,35,-1,-1,-1,-1,-1,-1,-1,-1,-1,-1,-1,-1,-1,-1],"loss_changes":[6.3586206E2,2.1126527E2,1.8384155E1,4.045459E1,2.5299435E1,9.035706E0,6.506073E0,5.4599E-1,5.003769E0,4.4070773E0,1.0940266E1,0E0,1.8616028E0,0E0,0E0,0E0,0E0,2.9110336E0,3.924686E0,7.950468E-1,2.50505E-1,6.1607397E-1,4.019619E0,0E0,0E0,0E0,0E0,0E0,0E0,0E0,0E0,0E0,0E0,0E0,0E0,0E0,0E0],"parents":[2147483647,0,0,1,1,2,2,3,3,4,4,5,5,6,6,7,7,8,8,9,9,10,10,12,12,17,17,18,18,19,19,20,20,21,21,22,22],"right_children":[2,4,6,8,10,12,14,16,18,20,22,-1,24,-1,-1,-1,-1,26,28,30,32,34,36,-1,-1,-1,-1,-1,-1,-1,-1,-1,-1,-1,-1,-1,-1],"split_conditions":[5.334E0,3.395E0,1.18E2,1.821E0,3.25E2,2.29E2,9.94E2,1.06E3,5.275E1,5.0885897E0,5.525E1,-0E0,4.2227607E0,4.435187E-2,-0E0,-2.6851062E-2,-0E0,3.271E0,4.0714287E1,4.198E0,8.429487E1,9.59E2,5.26E0,-0E0,2.415161E-2,-1.4853239E-2,-0E0,-0E0,-6.8657706E-3,-1.0934826E-3,-1.0452354E-2,2.3741024E-3,-0E0,-3.347289E-3,-0E0,9.202539E-3,-0E0],"split_indices":[5,5,8,5,3,3,3,3,9,4,9,0,4,0,0,0,0,5,8,5,8,3,5,0,0,0,0,0,0,0,0,0,0,0,0,0,0],"split_type":[0,0,0,0,0,0,0,0,0,0,0,0,0,0,0,0,0,0,0,0,0,0,0,0,0,0,0,0,0,0,0,0,0,0,0,0,0],"sum_hessian":[2.282E3,1.779E3,5.03E2,1.014E3,7.65E2,3.62E2,1.41E2,3.42E2,6.72E2,2.28E2,5.37E2,8E0,3.54E2,1.31E2,1E1,3.36E2,6E0,4.48E2,2.24E2,1.91E2,3.7E1,6.6E1,4.71E2,2.2E1,3.32E2,4.35E2,1.3E1,1.8E1,2.06E2,1.18E2,7.3E1,3E1,7E0,4.7E1,1.9E1,4.52E2,1.9E1],"tree_param":{"num_deleted":"0","num_feature":"10","num_nodes":"37","size_leaf_vector":"1"}},{"base_weights":[-1.3911961E-2,-5.0358343E-1,4.7222373E-1,-3.1367883E-1,-8.413789E-1,1.14201225E-1,8.6727095E-1,-4.5028093E-1,-6.434972E-2,-9.0316373E-1,-5.322642E-3,1.8280752E-1,-2.1428578E-2,6.1342657E-1,1.2377205E0,-4.646086E-1,-0E0,-1.1172911E-1,-0E0,-2.7346293E-2,-0E0,8.935608E-2,4.086016E-1,4.1822404E-2,6.88138E-1,1.300079E0,-0E0,-1.6300265E-2,-5.3671952E-3,-5.436622E-3,-0E0,3.8731308E-3,-0E0,1.4036348E-2,-0E0,3.7862326E-3,-0E0,2.2224734E-2,-0E0,4.0833443E-2,-0E0],"categories":[],"categories_nodes":[],"categories_segments":[],"categories_sizes":[],"default_left":[0,0,0,0,0,0,0,0,0,0,0,0,0,0,0,0,0,0,0,0,0,0,0,0,0,0,0,0,0,0,0,0,0,0,0,0,0,0,0,0,0],"id":37,"left_children":[1,3,5,7,9,11,13,15,17,19,-1,21,-1,23,25,27,-1,29,-1,-1,-1,31,33,35,37,39,-1,-1,-1,-1,-1,-1,-1,-1,-1,-1,-1,-1,-1,-1,-1],"loss_changes":[5.397251E2,5.8875824E1,1.4859297E2,2.0584923E1,3.3854065E0,3.1004072E1,2.2889069E1,3.0863876E0,1.3336364E0,1.2374878E-1,0E0,7.0625744E0,0E0,7.1459503E0,9.152679E0,1.9728775E0,0E0,1.9230227E0,0E0,0E0,0E0,2.8276205E0,3.0104713E0,6.9690675E-1,4.1956635E0,6.030945E0,0E0,0E0,0E0,0E0,0E0,0E0,0E0,0E0,0E0,0E0,0E0,0E0,0E0,0E0,0E0],"parents":[2147483647,0,0,1,1,2,2,3,3,4,4,5,5,6,6,7,7,8,8,9,9,11,11,13,13,14,14,15,15,17,17,21,21,22,22,23,23,24,24,25,25],"right_children":[2,4,6,8,10,12,14,16,18,20,-1,22,-1,24,26,28,-1,30,-1,-1,-1,32,34,36,38,40,-1,-1,-1,-1,-1,-1,-1,-1,-1,-1,-1,-1,-1,-1,-1],"split_conditions":[3.695E0,6E0,8.6E1,4.975E1,5.3E1,6E0,1.1025E2,3.5689294E0,3.395E0,6.1017605E1,-5.322642E-3,4.9635E0,-2.1428578E-2,4.320171E0,1E0,4.2E1,-0E0,4.497526E0,-0E0,-2.7346293E-2,-0E0,8.027835E1,8.45E1,1.0125E2,5E0,1E0,-0E0,-1.6300265E-2,-5.3671952E-3,-5.436622E-3,-0E0,3.8731308E-3,-0E0,1.4036348E-2,-0E0,3.7862326E-3,-0E0,2.2224734E-2,-0E0,4.0833443E-2,-0E0],"split_indices":[5,0,9,9,8,0,9,4,5,9,0,5,0,4,2,8,0,4,0,0,0,8,9,9,0,7,0,0,0,0,0,0,0,0,0,0,0,0,0,0,0],"split_type":[0,0,0,0,0,0,0,0,0,0,0,0,0,0,0,0,0,0,0,0,0,0,0,0,0,0,0,0,0,0,0,0,0,0,0,0,0,0,0,0,0],"sum_hessian":[2.246E3,1.129E3,1.117E3,7.54E2,3.75E2,6.06E2,5.11E2,4.56E2,2.98E2,3.26E2,4.9E1,5.78E2,2.8E1,3.35E2,1.76E2,4.42E2,1.4E1,1.99E2,9.9E1,3.2E2,6E0,4.5E2,1.28E2,5.6E1,2.79E2,1.64E2,1.2E1,3.12E2,1.3E2,1.28E2,7.1E1,3.8E2,7E1,1.09E2,1.9E1,4.1E1,1.5E1,2.47E2,3.2E1,1.52E2,1.2E1],"tree_param":{"num_deleted":"0","num_feature":"10","num_nodes":"41","size_leaf_vector":"1"}},{"base_weights":[-6.400308E-3,-3.627964E-1,7.055013E-1,-1.878906E-1,-8.5039574E-1,3.5973802E-1,9.788753E-1,-4.443767E-1,-0E0,-3.592575E-2,-4.720964E-1,-2.3309681E-1,4.30051E-1,-0E0,3.0105608E-2,-4.7276878E-1,-0E0,-1.11586176E-1,4.8695974E-2,-5.012212E-1,-0E0,-0E0,-9.99566E-3,4.9518824E-1,-0E0,-1.9677455E-2,-8.835417E-3,-0E0,-4.261375E-3,-1.4112338E-4,3.5719129E-3,-0E0,-1.5268728E-2,-0E0,1.7668528E-2,-0E0,2.4118887E-3],"categories":[],"categories_nodes":[],"categories_segments":[],"categories_sizes":[],"default_left":[0,0,0,0,0,0,0,0,0,0,0,0,0,0,0,0,0,0,0,0,0,0,0,0,0,0,0,0,0,0,0,0,0,0,0,0,0],"id":38,"left_children":[1,3,5,7,9,11,13,15,17,-1,19,21,23,-1,-1,25,-1,27,29,31,-1,-1,-1,33,35,-1,-1,-1,-1,-1,-1,-1,-1,-1,-1,-1,-1],"loss_changes":[5.75582E2,1.18503784E2,5.4173492E1,5.621857E1,2.8339355E1,1.814494E1,8.367157E0,8.091759E0,3.6255517E0,0E0,3.3313026E0,1.1453433E0,5.2837143E0,0E0,0E0,3.9079056E0,0E0,1.113666E0,2.9678981E0,2.9910278E-1,0E0,0E0,0E0,7.752365E0,3.684232E-1,0E0,0E0,0E0,0E0,0E0,0E0,0E0,0E0,0E0,0E0,0E0,0E0],"parents":[2147483647,0,0,1,1,2,2,3,3,4,4,5,5,6,6,7,7,8,8,10,10,11,11,12,12,15,15,17,17,18,18,19,19,23,23,24,24],"right_children":[2,4,6,8,10,12,14,16,18,-1,20,22,24,-1,-1,26,-1,28,30,32,-1,-1,-1,34,36,-1,-1,-1,-1,-1,-1,-1,-1,-1,-1,-1,-1],"split_conditions":[4.55425E0,6E0,5.839E0,4.975E1,4.93E2,2.12E2,4.2227607E0,3.5689294E0,3.395E0,-3.592575E-2,7.8E1,4.71E0,1E0,-0E0,3.0105608E-2,3.2E2,-0E0,2.45E0,3.25E2,7.65E-1,-0E0,-0E0,-9.99566E-3,2E0,4.4127827E0,-1.9677455E-2,-8.835417E-3,-0E0,-4.261375E-3,-1.4112338E-4,3.5719129E-3,-0E0,-1.5268728E-2,-0E0,1.7668528E-2,-0E0,2.4118887E-3],"split_indices":[6,0,5,9,3,3,4,4,5,0,8,5,7,0,0,3,0,5,3,5,0,0,0,0,5,0,0,0,0,0,0,0,0,0,0,0,0],"split_type":[0,0,0,0,0,0,0,0,0,0,0,0,0,0,0,0,0,0,0,0,0,0,0,0,0,0,0,0,0,0,0,0,0,0,0,0,0],"sum_hessian":[2.262E3,1.52E3,7.42E2,1.144E3,3.76E2,3.54E2,3.88E2,4.81E2,6.63E2,1.71E2,2.05E2,2E1,3.34E2,1.1E1,3.77E2,4.6E2,2.1E1,1.89E2,4.74E2,1.94E2,1.1E1,5E0,1.5E1,2.71E2,6.3E1,1.86E2,2.74E2,2.1E1,1.68E2,1.94E2,2.8E2,5E0,1.89E2,6E1,2.11E2,1.6E1,4.7E1],"tree_param":{"num_deleted":"0","num_feature":"10","num_nodes":"37","size_leaf_vector":"1"}},{"base_weights":[-2.1030953E-2,-3.1037712E-1,7.646207E-1,-5.9674346E-1,-1.607178E-2,6.379703E-1,1.341425E0,-2.3522193E-2,-4.0524492E-1,-7.676711E-2,3.882717E-1,6.643733E-1,-0E0,4.3378454E-2,-0E0,-4.3532142E-1,-0E0,8.341578E-2,-1.284773E-1,4.2176887E-1,-0E0,2.1359755E-3,6.891793E-1,-0E0,-1.3328011E-2,-0E0,3.4962406E-3,-4.9367435E-3,1.9206306E-3,-0E0,1.352053E-2,-0E0,7.7864865E-4,-0E0,2.1509614E-2],"categories":[],"categories_nodes":[],"categories_segments":[],"categories_sizes":[],"default_left":[0,0,0,0,0,0,0,0,0,0,0,0,0,0,0,0,0,0,0,0,0,0,0,0,0,0,0,0,0,0,0,0,0,0,0],"id":39,"left_children":[1,3,5,7,9,11,13,-1,15,17,19,21,-1,-1,-1,23,-1,25,27,29,-1,31,33,-1,-1,-1,-1,-1,-1,-1,-1,-1,-1,-1,-1],"loss_changes":[5.1590515E2,1.3553348E2,1.5991058E1,1.4883667E1,1.8215307E1,8.989563E0,8.329636E0,0E0,5.3757324E0,6.9771795E0,1.251111E0,1.4501495E0,0E0,0E0,0E0,2.372963E0,0E0,8.5807E-1,5.5350046E0,1.1287489E0,0E0,2.4729226E-2,2.2016144E0,0E0,0E0,0E0,0E0,0E0,0E0,0E0,0E0,0E0,0E0,0E0,0E0],"parents":[2147483647,0,0,1,1,2,2,3,3,4,4,5,5,6,6,8,8,9,9,10,10,11,11,15,15,17,17,18,18,19,19,21,21,22,22],"right_children":[2,4,6,8,10,12,14,-1,16,18,20,22,-1,-1,-1,24,-1,26,28,30,-1,32,34,-1,-1,-1,-1,-1,-1,-1,-1,-1,-1,-1,-1],"split_conditions":[4.909E0,5.25E1,7.341E0,2.0525E0,5.006E0,1E0,1E0,-2.3522193E-2,1.056E3,3.1024451E0,8.4E1,4.2227607E0,-0E0,4.3378454E-2,-0E0,1.7E1,-0E0,2.3695843E0,5.0885897E0,3.89825E0,-0E0,6.26E2,5.0535E0,-0E0,-1.3328011E-2,-0E0,3.4962406E-3,-4.9367435E-3,1.9206306E-3,-0E0,1.352053E-2,-0E0,7.7864865E-4,-0E0,2.1509614E-2],"split_indices":[6,9,6,6,5,2,2,0,3,4,9,4,0,0,0,8,0,4,4,6,0,3,6,0,0,0,0,0,0,0,0,0,0,0,0],"split_type":[0,0,0,0,0,0,0,0,0,0,0,0,0,0,0,0,0,0,0,0,0,0,0,0,0,0,0,0,0,0,0,0,0,0,0],"sum_hessian":[2.269E3,1.672E3,5.97E2,8.25E2,8.47E2,5.21E2,7.6E1,3.75E2,4.5E2,7.65E2,8.2E1,5E2,2.1E1,6.8E1,8E0,4.17E2,3.3E1,1.38E2,6.27E2,7.5E1,7E0,3.3E1,4.67E2,5E0,4.12E2,9E0,1.29E2,5.73E2,5.4E1,5E0,7E1,6E0,2.7E1,3.2E1,4.35E2],"tree_param":{"num_deleted":"0","num_feature":"10","num_nodes":"35","size_leaf_vector":"1"}},{"base_weights":[-1.3624668E-3,-2.7725133E-1,8.521162E-1,-5.842427E-1,-6.351752E-3,6.7125523E-1,3.798327E-2,-6.6539127E-1,-2.6280203E-1,-7.085241E-2,2.9539502E-1,2.0949777E-2,-0E0,-2.3714114E-2,-4.0633363E-1,-2.880527E-1,-0E0,-1.8365827E-1,-0E0,-0E0,4.097213E-1,-0E0,-1.2337364E-2,-0E0,-9.292064E-3,-7.249069E-3,4.8015412E-4,-4.7596893E-3,1.8380665E-3,-0E0,1.3690857E-2],"categories":[],"categories_nodes":[],"categories_segments":[],"categories_sizes":[],"default_left":[0,0,0,0,0,0,0,0,0,0,0,0,0,0,0,0,0,0,0,0,0,0,0,0,0,0,0,0,0,0,0],"id":40,"left_children":[1,3,5,7,9,11,-1,13,15,17,19,-1,-1,-1,21,23,-1,25,27,-1,29,-1,-1,-1,-1,-1,-1,-1,-1,-1,-1],"loss_changes":[5.261753E2,1.3676608E2,1.2784729E1,9.497864E0,1.6239498E1,4.207245E0,0E0,4.164459E0,1.7861986E0,6.4963713E0,6.753333E0,0E0,0E0,0E0,1.2220001E-1,9.977579E-1,0E0,5.918254E0,4.999767E0,0E0,2.6902008E0,0E0,0E0,0E0,0E0,0E0,0E0,0E0,0E0,0E0,0E0],"parents":[2147483647,0,0,1,1,2,2,3,3,4,4,5,5,7,7,8,8,9,9,10,10,14,14,15,15,17,17,18,18,20,20],"right_children":[2,4,6,8,10,12,-1,14,16,18,20,-1,-1,-1,22,24,-1,26,28,-1,30,-1,-1,-1,-1,-1,-1,-1,-1,-1,-1],"split_conditions":[5.1498713E0,3.04E0,7.257E0,4.2153847E1,4.9635E0,1E0,3.798327E-2,4.38E2,1.052E3,3.2E2,3.45E2,2.0949777E-2,-0E0,-2.3714114E-2,7.65E-1,1.94E2,-0E0,5.0885897E0,3.395E0,-0E0,2.6192207E0,-0E0,-1.2337364E-2,-0E0,-9.292064E-3,-7.249069E-3,4.8015412E-4,-4.7596893E-3,1.8380665E-3,-0E0,1.3690857E-2],"split_indices":[6,6,5,8,5,2,0,3,3,3,3,0,0,0,5,3,0,4,5,0,4,0,0,0,0,0,0,0,0,0,0],"split_type":[0,0,0,0,0,0,0,0,0,0,0,0,0,0,0,0,0,0,0,0,0,0,0,0,0,0,0,0,0,0,0],"sum_hessian":[2.239E3,1.706E3,5.33E2,7.77E2,9.29E2,4.06E2,1.27E2,5.87E2,1.9E2,7.99E2,1.3E2,3.83E2,2.3E1,3.56E2,2.31E2,1.78E2,1.2E1,3.03E2,4.96E2,2.7E1,1.03E2,5E0,2.26E2,1.5E1,1.63E2,2.72E2,3.1E1,1.33E2,3.63E2,9E0,9.4E1],"tree_param":{"num_deleted":"0","num_feature":"10","num_nodes":"31","size_leaf_vector":"1"}},{"base_weights":[-1.8936713E-3,-3.000217E-1,7.3533475E-1,-1.14249E-1,-8.169638E-1,1.9579123E-1,8.3607394E-1,-3.2879138E-1,8.658862E-2,-3.5689015E-2,-1.4203438E-2,-0E0,3.0375415E-1,8.922814E-1,-0E0,-3.7055385E-1,-0E0,-0E0,2.029359E-1,-0E0,9.967631E-3,-0E0,9.168209E-1,-8.2145375E-4,3.494353E-3,-1.1834635E-2,-0E0,-2.5052028E-3,-0E0,-7.8560994E-4,2.013815E-3,8.372899E-3,-0E0,2.8442245E-2,-0E0],"categories":[],"categories_nodes":[],"categories_segments":[],"categories_sizes":[],"default_left":[0,0,0,0,0,0,0,0,0,0,0,0,0,0,0,0,0,0,0,0,0,0,0,0,0,0,0,0,0,0,0,0,0,0,0],"id":41,"left_children":[1,3,5,7,9,11,13,15,17,-1,-1,-1,19,21,23,25,27,29,31,-1,-1,-1,33,-1,-1,-1,-1,-1,-1,-1,-1,-1,-1,-1,-1],"loss_changes":[4.9457495E2,1.4590536E2,2.3047852E1,5.5360474E1,3.0736359E1,2.3056145E0,2.0650421E1,5.3878174E0,7.043766E0,0E0,0E0,0E0,7.696252E-1,5.6050415E0,5.818197E-1,5.4112625E0,5.3695023E-1,4.4768322E-1,4.7031517E0,0E0,0E0,0E0,5.6470337E0,0E0,0E0,0E0,0E0,0E0,0E0,0E0,0E0,0E0,0E0,0E0,0E0],"parents":[2147483647,0,0,1,1,2,2,3,3,4,4,5,5,6,6,7,7,8,8,12,12,13,13,14,14,15,15,16,16,17,17,18,18,22,22],"right_children":[2,4,6,8,10,12,14,16,18,-1,-1,-1,20,22,24,26,28,30,32,-1,-1,-1,34,-1,-1,-1,-1,-1,-1,-1,-1,-1,-1,-1,-1],"split_conditions":[4.882E0,6E0,4.320171E0,3.378E0,4.11E2,6.97E2,5E0,4.320171E0,4.1125426E0,-3.5689015E-2,-1.4203438E-2,-0E0,7.875E1,5.0535E0,4.93E2,1.052E3,2.33E2,1.019E3,7.975E1,-0E0,9.967631E-3,-0E0,1E0,-8.2145375E-4,3.494353E-3,-1.1834635E-2,-0E0,-2.5052028E-3,-0E0,-7.8560994E-4,2.013815E-3,8.372899E-3,-0E0,2.8442245E-2,-0E0],"split_indices":[6,0,4,5,3,3,0,4,6,0,0,0,9,6,3,3,3,3,9,0,0,0,2,0,0,0,0,0,0,0,0,0,0,0,0],"split_type":[0,0,0,0,0,0,0,0,0,0,0,0,0,0,0,0,0,0,0,0,0,0,0,0,0,0,0,0,0,0,0,0,0,0,0],"sum_hessian":[2.25E3,1.616E3,6.34E2,1.212E3,4.04E2,1.2E2,5.14E2,6.07E2,6.05E2,1.68E2,2.36E2,5.1E1,6.9E1,4.76E2,3.8E1,5.15E2,9.2E1,3.32E2,2.73E2,6E0,6.3E1,1.9E1,4.57E2,6E0,3.2E1,4.88E2,2.7E1,6.7E1,2.5E1,2.88E2,4.4E1,2E2,7.3E1,4.33E2,2.4E1],"tree_param":{"num_deleted":"0","num_feature":"10","num_nodes":"35","size_leaf_vector":"1"}},{"base_weights":[-4.281707E-3,-3.8400692E-1,5.461486E-1,-6.255752E-1,-1.5782525E-1,2.9949823E-1,9.384124E-1,-7.522162E-1,-3.9192906E-1,-2.6149896E-1,-2.7647672E-2,-2.6611345E-2,3.969854E-1,-0E0,9.833541E-1,-2.311871E-2,-0E0,-4.033218E-1,-0E0,-2.8022635E-1,-0E0,-7.4696474E-2,-0E0,-2.1767335E-1,6.9103144E-2,-0E0,1.2432657E-2,-0E0,1.008524E0,-1.2776359E-2,-0E0,-8.657041E-3,-0E0,-4.039145E-3,-0E0,-0E0,7.921163E-4,-8.381078E-3,-0E0,3.9223526E-3,-0E0,3.1881228E-2,3.7725475E-3],"categories":[],"categories_nodes":[],"categories_segments":[],"categories_sizes":[],"default_left":[0,0,0,0,0,0,0,0,0,0,0,0,0,0,0,0,0,0,0,0,0,0,0,0,0,0,0,0,0,0,0,0,0,0,0,0,0,0,0,0,0,0,0],"id":42,"left_children":[1,3,5,7,9,11,13,15,17,19,21,23,25,-1,27,-1,-1,29,-1,31,-1,33,35,37,39,-1,-1,-1,41,-1,-1,-1,-1,-1,-1,-1,-1,-1,-1,-1,-1,-1,-1],"loss_changes":[4.830851E2,6.67435E1,7.537024E1,4.6658173E0,7.1447334E0,2.3043243E1,1.1078552E1,5.2838135E-1,1.6781807E0,1.8209534E0,1.1333121E0,3.9220467E0,3.841156E0,0E0,4.9552E0,0E0,0E0,1.5305328E-1,0E0,4.85363E-1,0E0,1.8164432E0,2.9280916E-2,1.3299143E0,3.4798032E-1,0E0,0E0,0E0,1.6547852E0,0E0,0E0,0E0,0E0,0E0,0E0,0E0,0E0,0E0,0E0,0E0,0E0,0E0,0E0],"parents":[2147483647,0,0,1,1,2,2,3,3,4,4,5,5,6,6,7,7,8,8,9,9,10,10,11,11,12,12,14,14,17,17,19,19,21,21,22,22,23,23,24,24,28,28],"right_children":[2,4,6,8,10,12,14,16,18,20,22,24,26,-1,28,-1,-1,30,-1,32,-1,34,36,38,40,-1,-1,-1,42,-1,-1,-1,-1,-1,-1,-1,-1,-1,-1,-1,-1,-1,-1],"split_conditions":[4.1125426E0,2.6196513E0,6.09725E0,4.38E2,3.378E0,3.25E2,4.71E2,2.63E0,7.4E1,3.7895E0,6.92E2,4.868192E0,5.5E1,-0E0,4.2227607E0,-2.311871E-2,-0E0,2.521845E0,-0E0,1.056E3,-0E0,4.75313E0,1.044E3,8.2E1,8.429487E1,-0E0,1.2432657E-2,-0E0,1E0,-1.2776359E-2,-0E0,-8.657041E-3,-0E0,-4.039145E-3,-0E0,-0E0,7.921163E-4,-8.381078E-3,-0E0,3.9223526E-3,-0E0,3.1881228E-2,3.7725475E-3],"split_indices":[6,6,6,3,5,3,3,5,8,6,3,4,8,0,4,0,0,6,0,3,0,4,3,8,8,0,0,0,7,0,0,0,0,0,0,0,0,0,0,0,0,0,0],"split_type":[0,0,0,0,0,0,0,0,0,0,0,0,0,0,0,0,0,0,0,0,0,0,0,0,0,0,0,0,0,0,0,0,0,0,0,0,0,0,0,0,0,0,0],"sum_hessian":[2.299E3,1.373E3,9.26E2,6.34E2,7.39E2,5.95E2,3.31E2,3.69E2,2.65E2,3.63E2,3.76E2,1.15E2,4.8E2,1.9E1,3.12E2,3.52E2,1.7E1,2.6E2,5E0,3.38E2,2.5E1,2.46E2,1.3E2,6.9E1,4.6E1,1.8E1,4.62E2,1.1E1,3.01E2,2.33E2,2.7E1,3.24E2,1.4E1,1.69E2,7.7E1,9.8E1,3.2E1,5.5E1,1.4E1,2.6E1,2E1,2.71E2,3E1],"tree_param":{"num_deleted":"0","num_feature":"10","num_nodes":"43","size_leaf_vector":"1"}},{"base_weights":[2.0684239E-2,-2.5292078E-1,7.4875027E-1,-9.292684E-2,-7.352427E-1,5.220305E-1,1.0979682E0,-3.569203E-1,5.143409E-2,-3.0255778E-2,-3.50232E-1,-0E0,5.5144507E-1,1.1737635E0,-0E0,-4.2010215E-1,-0E0,-1.405503E-2,2.0222868E-1,-1.5102857E-2,-8.011402E-2,5.7384646E-1,-0E0,3.617344E-2,-0E0,1.1763839E-4,-0E0,-1.3145625E-2,-0E0,-2.195625E-3,-0E0,-1.6924159E-3,3.4386243E-4,-0E0,7.585953E-3,-0E0,-3.269935E-3,-0E0,1.8207667E-2],"categories":[],"categories_nodes":[],"categories_segments":[],"categories_sizes":[],"default_left":[0,0,0,0,0,0,0,0,0,0,0,0,0,0,0,0,0,0,0,0,0,0,0,0,0,0,0,0,0,0,0,0,0,0,0,0,0,0,0],"id":43,"left_children":[1,3,5,7,9,11,13,15,17,-1,19,-1,21,23,25,27,29,31,33,-1,35,37,-1,-1,-1,-1,-1,-1,-1,-1,-1,-1,-1,-1,-1,-1,-1,-1,-1],"loss_changes":[4.5426093E2,1.1681988E2,2.7631561E1,5.0914474E1,2.3809647E1,6.4455414E0,8.948914E0,7.2686195E0,9.741356E0,0E0,1.70644E0,0E0,4.663185E0,7.8918457E0,3.8441093E-4,3.7709274E0,4.4993854E-1,1.0137156E0,4.3118563E0,0E0,4.784943E-1,1.8703308E0,0E0,0E0,0E0,0E0,0E0,0E0,0E0,0E0,0E0,0E0,0E0,0E0,0E0,0E0,0E0,0E0,0E0],"parents":[2147483647,0,0,1,1,2,2,3,3,4,4,5,5,6,6,7,7,8,8,10,10,12,12,13,13,14,14,15,15,16,16,17,17,18,18,20,20,21,21],"right_children":[2,4,6,8,10,12,14,16,18,-1,20,-1,22,24,26,28,30,32,34,-1,36,38,-1,-1,-1,-1,-1,-1,-1,-1,-1,-1,-1,-1,-1,-1,-1,-1,-1],"split_conditions":[4.909E0,6E0,6.665E0,3.0605E0,5.41E2,3.2E2,9.94E2,6.92E2,4.245E0,-3.0255778E-2,4.319782E0,-0E0,1E0,1E0,7.471E0,4.514966E0,2.8396053E0,4.497526E0,1.8E2,-1.5102857E-2,1.802E0,4.2227607E0,-0E0,3.617344E-2,-0E0,1.1763839E-4,-0E0,-1.3145625E-2,-0E0,-2.195625E-3,-0E0,-1.6924159E-3,3.4386243E-4,-0E0,7.585953E-3,-0E0,-3.269935E-3,-0E0,1.8207667E-2],"split_indices":[6,0,6,6,3,3,3,3,5,0,4,0,2,7,5,4,4,4,3,0,6,4,0,0,0,0,0,0,0,0,0,0,0,0,0,0,0,0,0],"split_type":[0,0,0,0,0,0,0,0,0,0,0,0,0,0,0,0,0,0,0,0,0,0,0,0,0,0,0,0,0,0,0,0,0,0,0,0,0,0,0],"sum_hessian":[2.236E3,1.62E3,6.16E2,1.241E3,3.79E2,4.06E2,2.1E2,4.58E2,7.83E2,1.97E2,1.82E2,2.2E1,3.84E2,1.89E2,2.1E1,3.69E2,8.9E1,5.06E2,2.77E2,8.7E1,9.5E1,3.68E2,1.6E1,1.84E2,5E0,1.5E1,6E0,3.58E2,1.1E1,7.4E1,1.5E1,3.33E2,1.73E2,3.6E1,2.41E2,8E0,8.7E1,3.5E1,3.33E2],"tree_param":{"num_deleted":"0","num_feature":"10","num_nodes":"39","size_leaf_vector":"1"}},{"base_weights":[-8.404708E-3,-2.6421636E-1,6.650132E-1,-5.304972E-1,-2.4834936E-2,4.9952593E-1,1.1307606E0,-6.963089E-1,-3.0355507E-1,-1.636797E-1,4.527075E-2,-0E0,5.450361E-1,3.6583025E-2,-0E0,-2.2188487E-2,-0E0,-0E0,-3.1235147E-1,-2.2570309E-1,-0E0,-7.945398E-2,1.5986507E-1,5.683269E-1,-0E0,-9.849996E-3,-0E0,-7.0097446E-3,-0E0,-0E0,4.6350257E-3,-3.012833E-3,-0E0,-0E0,7.325299E-3,-0E0,1.7580772E-2],"categories":[],"categories_nodes":[],"categories_segments":[],"categories_sizes":[],"default_left":[0,0,0,0,0,0,0,0,0,0,0,0,0,0,0,0,0,0,0,0,0,0,0,0,0,0,0,0,0,0,0,0,0,0,0,0,0],"id":44,"left_children":[1,3,5,7,9,11,13,15,17,19,21,-1,23,-1,-1,-1,-1,-1,25,27,29,31,33,35,-1,-1,-1,-1,-1,-1,-1,-1,-1,-1,-1,-1,-1],"loss_changes":[3.887978E2,1.00319016E2,2.5604156E1,1.6749634E1,1.0077019E1,1.1066513E1,6.453964E0,1.0179352E1,1.3053703E0,5.6966524E0,8.963654E0,0E0,4.511261E0,0E0,0E0,0E0,0E0,0E0,8.8326645E-1,3.7921906E-1,1.0980436E0,6.407777E-1,2.2726555E0,3.8954926E0,0E0,0E0,0E0,0E0,0E0,0E0,0E0,0E0,0E0,0E0,0E0,0E0,0E0],"parents":[2147483647,0,0,1,1,2,2,3,3,4,4,5,5,6,6,7,7,8,8,9,9,10,10,12,12,18,18,19,19,20,20,21,21,22,22,23,23],"right_children":[2,4,6,8,10,12,14,16,18,20,22,-1,24,-1,-1,-1,-1,-1,26,28,30,32,34,36,-1,-1,-1,-1,-1,-1,-1,-1,-1,-1,-1,-1,-1],"split_conditions":[4.882E0,2.936E0,7.257E0,4.3E2,3.25E2,4.2227607E0,9.91E2,4.6E1,9.4E-1,4.88716E0,3.67E0,-0E0,1E0,3.6583025E-2,-0E0,-2.2188487E-2,-0E0,-0E0,3.271E0,8.3E1,6.8E1,1.056E3,4.319782E0,2.83E2,-0E0,-9.849996E-3,-0E0,-7.0097446E-3,-0E0,-0E0,4.6350257E-3,-3.012833E-3,-0E0,-0E0,7.325299E-3,-0E0,1.7580772E-2],"split_indices":[6,6,5,3,3,4,3,8,5,4,5,0,2,0,0,0,0,0,5,8,9,3,4,3,0,0,0,0,0,0,0,0,0,0,0,0,0],"split_type":[0,0,0,0,0,0,0,0,0,0,0,0,0,0,0,0,0,0,0,0,0,0,0,0,0,0,0,0,0,0,0,0,0,0,0,0,0],"sum_hessian":[2.26E3,1.653E3,6.07E2,7.57E2,8.96E2,4.79E2,1.28E2,4E2,3.57E2,3.44E2,5.52E2,4.1E1,4.38E2,1.13E2,1.5E1,3.72E2,2.8E1,7E0,3.5E2,2.88E2,5.6E1,2.24E2,3.28E2,4.16E2,2.2E1,3.24E2,2.6E1,2.75E2,1.3E1,2E1,3.6E1,2E2,2.4E1,1.55E2,1.73E2,1.4E1,4.02E2],"tree_param":{"num_deleted":"0","num_feature":"10","num_nodes":"37","size_leaf_vector":"1"}},{"base_weights":[9.424968E-3,-2.4713428E-1,7.0282364E-1,-7.931105E-2,-7.386639E-1,4.863019E-1,1.0482258E0,-3.312755E-1,6.2347427E-2,-6.105057E-1,-4.7285803E-2,9.365779E-2,5.697642E-1,1.0937202E0,-0E0,-3.5825887E-1,-0E0,6.15424E-3,3.603117E-1,-6.9648385E-1,-5.275627E-3,-0E0,1.3725454E-1,6.1555576E-1,-0E0,3.43445E-2,-0E0,-1.092737E-2,-0E0,-5.767756E-4,3.4488612E-3,-0E0,1.2008278E-2,-0E0,-2.1182416E-2,5.5213114E-3,-0E0,3.6671849E-3,2.0779165E-2,3.2815934E-4,-0E0],"categories":[],"categories_nodes":[],"categories_segments":[],"categories_sizes":[],"default_left":[0,0,0,0,0,0,0,0,0,0,0,0,0,0,0,0,0,0,0,0,0,0,0,0,0,0,0,0,0,0,0,0,0,0,0,0,0,0,0,0,0],"id":45,"left_children":[1,3,5,7,9,11,13,15,17,19,-1,21,23,25,-1,27,-1,29,31,33,-1,-1,35,37,39,-1,-1,-1,-1,-1,-1,-1,-1,-1,-1,-1,-1,-1,-1,-1,-1],"loss_changes":[4.1723782E2,1.3006525E2,2.7196594E1,4.8618423E1,1.2732803E1,6.858124E0,6.986084E0,4.459137E0,9.758246E0,4.4020996E0,0E0,7.293013E-1,3.1341858E0,6.639099E0,0E0,1.1590805E0,0E0,2.9512122E0,1.086586E0,1.5183563E0,0E0,0E0,9.992417E-1,2.070198E0,2.9913485E-3,0E0,0E0,0E0,0E0,0E0,0E0,0E0,0E0,0E0,0E0,0E0,0E0,0E0,0E0,0E0,0E0],"parents":[2147483647,0,0,1,1,2,2,3,3,4,4,5,5,6,6,7,7,8,8,9,9,11,11,12,12,13,13,15,15,17,17,18,18,19,19,22,22,23,23,24,24],"right_children":[2,4,6,8,10,12,14,16,18,20,-1,22,24,26,-1,28,-1,30,32,34,-1,-1,36,38,40,-1,-1,-1,-1,-1,-1,-1,-1,-1,-1,-1,-1,-1,-1,-1,-1],"split_conditions":[4.909E0,6E0,6.665E0,3.0905E0,7E0,4.320171E0,1E0,3.6595473E0,4.9635E0,5E1,-4.7285803E-2,4.561E0,5E0,1E0,-0E0,3.5215E0,-0E0,4.75313E0,8.022078E1,7E0,-5.275627E-3,-0E0,1.08E2,2E0,5.083E0,3.43445E-2,-0E0,-1.092737E-2,-0E0,-5.767756E-4,3.4488612E-3,-0E0,1.2008278E-2,-0E0,-2.1182416E-2,5.5213114E-3,-0E0,3.6671849E-3,2.0779165E-2,3.2815934E-4,-0E0],"split_indices":[6,0,6,6,0,4,7,4,5,8,0,5,0,2,0,5,0,4,8,8,0,0,8,0,5,0,0,0,0,0,0,0,0,0,0,0,0,0,0,0,0],"split_type":[0,0,0,0,0,0,0,0,0,0,0,0,0,0,0,0,0,0,0,0,0,0,0,0,0,0,0,0,0,0,0,0,0,0,0,0,0,0,0,0,0],"sum_hessian":[2.3E3,1.673E3,6.27E2,1.271E3,4.02E2,4.18E2,2.09E2,4.78E2,7.93E2,3.74E2,2.8E1,9.8E1,3.2E2,1.97E2,1.2E1,4.42E2,3.6E1,7.04E2,8.9E1,2.88E2,8.6E1,1.9E1,7.9E1,2.81E2,3.9E1,1.84E2,1.3E1,4.36E2,6E0,5.03E2,2.01E2,1.2E1,7.7E1,5E0,2.83E2,6.9E1,1E1,5.9E1,2.22E2,1.5E1,2.4E1],"tree_param":{"num_deleted":"0","num_feature":"10","num_nodes":"41","size_leaf_vector":"1"}},{"base_weights":[-0E0,-2.2724766E-1,6.7664003E-1,-6.8714395E-2,-7.17597E-1,7.221906E-1,-0E0,-2.8428888E-1,1.2287934E-1,-5.963529E-1,-4.540651E-2,1.6365622E-1,7.931243E-1,-3.173549E-1,-0E0,5.8166318E-2,5.2045065E-1,-6.761942E-1,-1.4276275E-1,-0E0,6.134718E-3,2.4655826E-2,-0E0,-1.0125145E-2,-0E0,-0E0,-4.1875645E-4,3.0425182E-4,9.29056E-3,-0E0,1.7135356E-2,-0E0,-2.0623492E-2,-0E0,-5.016185E-3,-0E0,5.6798505E-3],"categories":[],"categories_nodes":[],"categories_segments":[],"categories_sizes":[],"default_left":[0,0,0,0,0,0,0,0,0,0,0,0,0,0,0,0,0,0,0,0,0,0,0,0,0,0,0,0,0,0,0,0,0,0,0,0,0],"id":46,"left_children":[1,3,5,7,9,11,-1,13,15,17,-1,19,21,23,25,27,29,31,33,-1,-1,-1,35,-1,-1,-1,-1,-1,-1,-1,-1,-1,-1,-1,-1,-1,-1],"loss_changes":[3.5030264E2,1.2542863E2,1.8649658E1,5.677214E1,8.862778E0,1.0409607E1,0E0,3.6044502E0,1.1534812E1,4.534424E0,0E0,1.0034106E0,5.044464E0,8.833847E-1,1.831506E-2,4.2835207E0,7.800045E-1,2.2416534E0,3.592124E-1,0E0,0E0,0E0,7.169045E-1,0E0,0E0,0E0,0E0,0E0,0E0,0E0,0E0,0E0,0E0,0E0,0E0,0E0,0E0],"parents":[2147483647,0,0,1,1,2,2,3,3,4,4,5,5,7,7,8,8,9,9,11,11,12,12,13,13,14,14,15,15,16,16,17,17,18,18,22,22],"right_children":[2,4,6,8,10,12,-1,14,16,18,-1,20,22,24,26,28,30,32,34,-1,-1,-1,36,-1,-1,-1,-1,-1,-1,-1,-1,-1,-1,-1,-1,-1,-1],"split_conditions":[8.4660446E1,6E0,5E0,3.378E0,7E0,4.319782E0,-0E0,4.320171E0,5.3486757E0,5.425E1,-4.540651E-2,4.561E0,1E0,5.625E1,4.161039E1,5.0885897E0,3.6595473E0,7E0,5.65E1,-0E0,6.134718E-3,2.4655826E-2,4E0,-1.0125145E-2,-0E0,-0E0,-4.1875645E-4,3.0425182E-4,9.29056E-3,-0E0,1.7135356E-2,-0E0,-2.0623492E-2,-0E0,-5.016185E-3,-0E0,5.6798505E-3],"split_indices":[9,0,0,5,0,4,0,4,5,9,0,5,2,9,8,4,4,8,9,0,0,0,0,0,0,0,0,0,0,0,0,0,0,0,0,0,0],"split_type":[0,0,0,0,0,0,0,0,0,0,0,0,0,0,0,0,0,0,0,0,0,0,0,0,0,0,0,0,0,0,0,0,0,0,0,0,0],"sum_hessian":[2.272E3,1.711E3,5.61E2,1.317E3,3.94E2,5.27E2,3.4E1,6.42E2,6.75E2,3.68E2,2.6E1,7.9E1,4.48E2,5.49E2,9.3E1,6.12E2,6.3E1,2.9E2,7.8E1,8E0,7.1E1,4.24E2,2.4E1,4.92E2,5.7E1,9E0,8.4E1,5.56E2,5.6E1,1E1,5.3E1,5E0,2.85E2,1.1E1,6.7E1,1.4E1,1E1],"tree_param":{"num_deleted":"0","num_feature":"10","num_nodes":"37","size_leaf_vector":"1"}},{"base_weights":[-1.8986043E-3,-2.4509376E-1,6.3300663E-1,-9.3393944E-2,-6.7642707E-1,4.2918068E-1,9.7259897E-1,-2.3239371E-1,1.5581907E-1,-3.0859593E-2,-3.7648258E-1,4.648558E-1,-0E0,1.0295289E0,-0E0,-2.9893857E-1,-0E0,-0E0,2.1173309E-1,-3.8783905E-1,-0E0,-0E0,4.9395257E-1,-0E0,3.2672286E-2,-9.578524E-3,-0E0,1.3194949E-3,-2.6644054E-3,-0E0,9.435776E-3,-0E0,-1.1791707E-2,-0E0,1.55229485E-2],"categories":[],"categories_nodes":[],"categories_segments":[],"categories_sizes":[],"default_left":[0,0,0,0,0,0,0,0,0,0,0,0,0,0,0,0,0,0,0,0,0,0,0,0,0,0,0,0,0,0,0,0,0,0,0],"id":47,"left_children":[1,3,5,7,9,11,13,15,17,-1,19,21,-1,23,-1,25,27,-1,29,31,-1,-1,33,-1,-1,-1,-1,-1,-1,-1,-1,-1,-1,-1,-1],"loss_changes":[3.4477673E2,9.9242195E1,2.4307678E1,4.4255344E1,2.5286087E1,6.048744E0,9.473022E0,1.1081001E1,5.078726E0,0E0,5.3274536E-1,2.229103E0,0E0,3.9325867E0,0E0,4.8030434E0,1.135824E0,0E0,5.154888E0,2.095108E-1,0E0,0E0,1.909317E0,0E0,0E0,0E0,0E0,0E0,0E0,0E0,0E0,0E0,0E0,0E0,0E0],"parents":[2147483647,0,0,1,1,2,2,3,3,4,4,5,5,6,6,7,7,8,8,10,10,11,11,13,13,15,15,16,16,18,18,19,19,22,22],"right_children":[2,4,6,8,10,12,14,16,18,-1,20,22,-1,24,-1,26,28,-1,30,32,-1,-1,34,-1,-1,-1,-1,-1,-1,-1,-1,-1,-1,-1,-1],"split_conditions":[4.909E0,6E0,6.665E0,6.5E1,4.11E2,5E0,1E0,3.49275E0,1.8E2,-3.0859593E-2,7.8E1,4.2227607E0,-0E0,4.319782E0,-0E0,1.056E3,3.6595473E0,-0E0,4.4127827E0,1.3E1,-0E0,-0E0,5.0535E0,-0E0,3.2672286E-2,-9.578524E-3,-0E0,1.3194949E-3,-2.6644054E-3,-0E0,9.435776E-3,-0E0,-1.1791707E-2,-0E0,1.55229485E-2],"split_indices":[6,0,6,8,3,0,2,6,3,0,8,4,0,4,0,3,4,0,4,8,0,0,6,0,0,0,0,0,0,0,0,0,0,0,0],"split_type":[0,0,0,0,0,0,0,0,0,0,0,0,0,0,0,0,0,0,0,0,0,0,0,0,0,0,0,0,0,0,0,0,0,0,0],"sum_hessian":[2.238E3,1.634E3,6.04E2,1.235E3,3.99E2,4.1E2,1.94E2,8.19E2,4.16E2,1.57E2,2.42E2,3.76E2,3.4E1,1.81E2,1.3E1,6.15E2,2.04E2,8.2E1,3.34E2,2.31E2,1.1E1,3.5E1,3.41E2,1.7E1,1.64E2,5.85E2,3E1,9.6E1,1.08E2,1.36E2,1.98E2,5E0,2.26E2,2.4E1,3.17E2],"tree_param":{"num_deleted":"0","num_feature":"10","num_nodes":"35","size_leaf_vector":"1"}},{"base_weights":[2.2228213E-3,-3.0541325E-1,5.124815E-1,-1.545729E-1,-6.5263236E-1,2.0395903E-1,7.105385E-1,-2.853336E-1,-0E0,-1.9738805E-2,-0E0,2.9813161E-1,-0E0,5.451418E-1,1.0187117E0,-3.1779048E-1,-0E0,-3.9866433E-2,3.4656875E-2,-0E0,3.2776645E-1,-0E0,-6.1184485E-3,1.687446E-2,-0E0,-0E0,3.1945568E-2,-1.1717224E-2,-4.4837636E-3,-0E0,-2.9032954E-3,4.5077237E-3,-0E0,-0E0,1.0185678E-2],"categories":[],"categories_nodes":[],"categories_segments":[],"categories_sizes":[],"default_left":[0,0,0,0,0,0,0,0,0,0,0,0,0,0,0,0,0,0,0,0,0,0,0,0,0,0,0,0,0,0,0,0,0,0,0],"id":48,"left_children":[1,3,5,7,9,11,13,15,17,-1,-1,19,21,23,25,27,-1,29,31,-1,33,-1,-1,-1,-1,-1,-1,-1,-1,-1,-1,-1,-1,-1,-1],"loss_changes":[3.5588547E2,6.392943E1,4.195613E1,1.9544922E1,6.214752E-1,9.939763E0,4.293457E0,6.736248E0,6.910322E-1,0E0,0E0,3.6748295E0,6.6551846E-1,1.6894073E0,3.4462433E0,1.173172E-1,0E0,1.1257557E0,2.2120554E0,0E0,1.0806026E0,0E0,0E0,0E0,0E0,0E0,0E0,0E0,0E0,0E0,0E0,0E0,0E0,0E0,0E0],"parents":[2147483647,0,0,1,1,2,2,3,3,4,4,5,5,6,6,7,7,8,8,11,11,12,12,13,13,14,14,15,15,17,17,18,18,20,20],"right_children":[2,4,6,8,10,12,14,16,18,-1,-1,20,22,24,26,28,-1,30,32,-1,34,-1,-1,-1,-1,-1,-1,-1,-1,-1,-1,-1,-1,-1,-1],"split_conditions":[4.248E0,6E0,5.3315E0,5.375E1,7.025E1,5E0,1.19E2,3.6595473E0,6.5E1,-1.9738805E-2,-0E0,3.421E0,6E0,5E0,2E0,4.1E1,-0E0,3.6595473E0,6.575E1,-0E0,6.75E1,-0E0,-6.1184485E-3,1.687446E-2,-0E0,-0E0,3.1945568E-2,-1.1717224E-2,-4.4837636E-3,-0E0,-2.9032954E-3,4.5077237E-3,-0E0,-0E0,1.0185678E-2],"split_indices":[6,0,6,9,9,0,8,4,8,0,0,5,0,0,0,8,0,4,9,0,9,0,0,0,0,0,0,0,0,0,0,0,0,0,0],"split_type":[0,0,0,0,0,0,0,0,0,0,0,0,0,0,0,0,0,0,0,0,0,0,0,0,0,0,0,0,0,0,0,0,0,0,0],"sum_hessian":[2.234E3,1.384E3,8.5E2,9.95E2,3.89E2,3.6E2,4.9E2,5.25E2,4.7E2,3.84E2,5E0,2.75E2,8.5E1,3.58E2,1.32E2,4.88E2,3.7E1,2.54E2,2.16E2,1.5E1,2.6E2,7.9E1,6E0,3.41E2,1.7E1,9E0,